ᴰ -0.8489 -0.42516 0.21667 0.60438 -0.4674 -0.2977 0.50407 0.49724 0.055784 -2.1226 0.5495 -0.1824 0.062651 0.78856 0.25949 0.60233 0.46463 -1.6487 0.43542 -0.1763 -0.48897 -0.24676 0.50851 0.25137 0.16586 0.62427 0.5708 0.62832 -0.23314 0.45589 0.57431 0.19519 -0.071406 0.14046 0.040766 0.014353 0.57317 0.30945 -0.97842 0.2292 -0.33163 -0.94949 -0.36634 0.26894 -0.44556 -0.53835 0.013361 0.3944 -0.60664 -0.1822 -0.12728 -0.065783 -0.21908 -0.22695 0.010322 0.23156 -0.019966 -0.13472 -0.18031 0.2862 -0.088223 0.079966 0.44816 -0.78992 -0.72572 0.46583 -0.48033 -0.003369 -0.18957 -0.62483 -0.20429 0.30256 -0.79736 0.23289 -0.18593 -0.713 0.23505 0.62275 -0.30479 0.33231 0.29563 0.15329 0.28727 0.32741 -0.22245 0.65837 0.17095 -0.76984 -0.31046 -0.48583 0.00773 0.016343 0.079915 0.080483 -0.46995 0.43664 0.25639 0.32328 0.15383 -0.3172 0.26748 0.21587 0.19273 -0.31774 -0.091991 0.12911 -0.28403 -0.054968 -0.38242 -0.62971 -0.62274 0.22365 0.56516 0.38007 0.1653 0.31213 0.14633 0.2878 0.1183 -0.10283 -0.080697 -0.56882 -0.26894 0.16331 -0.001162 -0.10425 -0.43761 0.10696 0.30024 -0.17136 -0.4773 -0.27708 0.27332 -0.39128 0.7789 -0.49622 0.74176 0.27185 -0.65125 0.045714 0.98708 0.42837 -0.63985 0.92223 -0.76897 -0.56946 0.47308 -0.012205 0.2567 0.20697 -0.32843 0.099483 -0.50419 0.14348 0.47671 0.34754 -0.13969 -0.014156 -0.23646 0.48071 0.22783 0.43847 -0.40068 -0.073929 0.44102 0.7986 0.013334 0.21008 -0.11687 -0.29491 -0.10051 -0.022702 0.23271 -0.049795 0.32592 -1.0517 0.74943 0.045789 0.47254 -0.35436 0.019929 -0.2154 0.27346 0.14252 -0.10581 0.011236 -0.14494 0.076987 -0.068524 0.19234 -0.078498 -0.77502 0.46652 -0.8409 0.091002 -0.21409 0.32911 0.12723 0.15167 -0.70806 -0.035608 -0.068729 0.34616 0.12032 -0.37397 -0.12474 0.47864 0.52093 0.70386 0.016547 0.46052 -0.39322 -0.2064 0.30117 0.435 0.067633 0.20616 0.054256 0.56804 0.84401 -0.79346 -0.70039 -0.21085 -0.11847 0.23 0.53556 0.26435 -0.50665 -0.30377 -0.73402 -0.13085 -0.97212 -0.68236 -0.018149 0.075166 0.68514 0.4431 -0.11551 -0.057829 -0.044571 -0.44577 -0.16961 0.50829 -0.44408 -0.47041 0.46497 0.17811 -0.009066 0.32321 -0.33254 -0.3981 0.56677 0.099879 -0.10697 -0.53815 -0.50454 -0.006148 0.028122 -0.46709 -0.3755 0.06028 -1.1443 -0.26706 -0.64577 -0.19934 0.39663 0.092703 -0.044996 0.037037 0.18071 -0.16785 -0.63894 -0.2202 0.51675 0.52552 -0.008161 -0.001091 -0.66593 0.48567 -0.074294 0.28055 -0.51656 -0.85056 0.63065 0.2462 0.1484 -0.027951 0.030533 0.11293 -0.34348 0.37274 -0.17936 -0.22095 0.61511 0.43536 0.22143 -0.46317 -0.1381 0.80771 0.54765
₈ 0.11732 -1.0592 -0.19325 1.1966 -0.46187 0.73978 1.3467 0.7033 -0.88266 -1.7906 0.25054 0.30598 -0.96786 -0.18423 0.60229 0.26005 0.12181 -0.60645 0.005077 0.34755 -0.15289 1.0014 -0.042009 -0.33299 -0.030252 -0.76731 -1.1283 0.39125 0.032015 1.0839 -0.092492 -0.43976 0.20368 0.42453 0.20881 -0.2554 -0.39352 -0.96143 -0.41165 0.49199 1.1654 -1.0228 -0.22202 0.13865 0.66648 -0.39011 0.41271 -0.069891 -0.25239 -0.83508 -0.076888 -0.050711 0.69354 0.099287 -0.004952 0.033128 0.90048 0.32724 1.0403 -0.19271 0.062049 0.19651 -0.3806 0.12597 -0.2323 0.046426 0.74539 0.16352 -0.71521 0.028566 -0.25888 0.23281 -0.30039 0.59755 0.15905 -0.72388 -0.054265 0.75923 0.56155 0.038934 -0.40122 -0.81613 -0.64605 0.30284 -0.88538 0.82304 0.9124 -0.28685 -1.3176 0.20226 -1.1371 -0.28959 -0.39113 0.83921 -0.56689 0.5802 -0.33958 -0.23319 -0.38485 -0.65137 0.28035 -0.5691 -0.21277 -0.042456 -0.57059 -0.31146 0.064914 0.038532 -0.23273 0.16251 -0.91872 0.44411 0.079221 -0.76818 -0.18637 0.3031 -0.073184 -0.001261 0.40381 -0.79042 -0.54617 -0.69103 0.24917 0.30127 0.10212 0.19376 -0.14841 0.62479 -0.092956 0.50663 0.27944 0.2048 0.90668 0.8116 -0.88612 -0.068945 -0.26514 -0.2506 0.40368 0.85686 1.279 -0.085558 -0.38709 0.34637 0.50569 0.010516 -1.0548 0.42771 0.24508 0.14603 0.56874 0.18979 -0.13075 0.34081 -0.048674 0.55578 0.61556 -0.80701 0.5388 0.25496 -0.78806 0.1978 -0.049116 0.58127 0.54749 0.69276 -0.80409 -0.24596 -0.45431 -0.138 -1.0065 -0.17573 -0.53138 0.56867 1.2401 -0.070522 -0.02657 0.56985 -1.2503 -0.69845 -0.11194 0.2473 0.31625 0.47985 0.75057 0.65194 0.041248 0.3728 0.25361 -0.39173 0.37591 0.18968 0.19908 -0.12264 0.39838 -0.42953 0.27423 0.39516 0.086088 -0.1859 0.59212 -0.71008 -0.066759 0.44553 -0.25101 -0.32289 -0.49298 0.75301 0.010215 -0.99384 -0.24573 0.038854 0.58438 0.18315 0.45988 0.12288 0.33974 -0.26286 1.6498 -0.024303 0.38218 0.42764 -0.25521 0.19329 -0.18514 -0.053515 0.19189 -0.46975 -0.005056 0.42814 -0.36356 -0.86612 0.32539 -0.096119 -0.4381 -0.25873 0.88463 -0.28579 0.48728 -0.026877 0.27244 0.54609 -0.13478 -0.39103 0.062112 0.024087 0.19042 -0.06911 -0.21362 -0.51661 -0.13966 -0.88995 -0.43274 -0.47971 -0.035303 -0.67821 -0.60789 -0.25416 0.59005 -0.90995 0.27486 -0.84141 -0.14558 -0.095193 -0.56385 0.4501 -0.61277 0.073633 -0.76111 0.87205 -0.14741 1.2086 -0.28276 1.4631 -0.51687 0.20815 0.7073 0.20202 0.27072 -0.9338 -0.27595 0.47045 -0.69582 -0.047488 0.065431 -0.089236 -0.448 -0.37026 -0.92592 0.75189 -0.16676 0.29895 -0.33222 -0.44141 0.77193 -0.24783 1.0577 0.17892 0.68847 -1.2812
⋄ 0.21611 -0.68406 0.22943 0.079235 -0.26622 -0.1327 0.085389 0.082322 0.34806 -1.9734 1.0066 -0.56671 -0.43614 0.62331 0.26518 -0.15282 -0.4246 -0.94105 0.3122 0.069213 0.54291 1.2026 -0.36258 0.23189 -0.33512 -0.28573 -0.30344 -0.60573 -0.22342 -0.2749 0.7073 -1.1285 0.20742 -0.27167 0.067806 0.49416 0.60769 -0.39014 0.16136 0.37531 -0.96011 -0.86727 0.16041 0.63348 -0.46543 -0.12136 0.021134 0.34305 -0.014344 0.21648 0.63156 -0.40591 -0.70296 -0.34777 0.016643 -0.052918 0.18318 -0.79359 -0.37577 -0.37094 -0.17183 0.42834 0.39002 -0.12876 -0.47529 -0.29801 0.34162 0.74247 0.27062 0.19331 -0.71476 -0.3425 -0.98565 -0.12717 -0.33904 -0.83136 0.38917 0.36743 -0.13219 -0.82027 0.15779 -0.084836 0.38966 0.41199 0.023934 0.60653 0.79495 -0.322 -0.81251 -0.62136 0.52532 -0.41536 -0.42701 -0.40773 -1.1095 0.72475 0.24066 0.43037 -0.082463 -0.57859 0.13066 0.19207 0.8813 -0.30909 -0.16762 -0.12562 -0.44059 0.52575 -0.5836 -0.038968 0.045431 0.55336 -0.41153 0.39586 -0.45081 0.4104 -0.16513 -0.1221 0.13736 -0.0526 -0.39246 -0.45236 0.37251 -0.36174 0.54122 0.12479 0.16143 0.37324 -0.3254 0.40237 -0.79671 0.5171 -0.28204 0.6096 0.36037 -0.085502 0.27177 0.35195 -0.52514 0.29194 0.93942 -0.10212 -0.48741 -0.17944 -0.43832 -0.12247 -0.33452 -0.48315 -0.27556 0.29704 1.1995 -0.42438 0.076844 0.81789 0.28368 0.18049 -0.5983 -0.090967 0.063312 0.11002 -0.38433 0.009701 -0.58987 0.73073 0.91674 0.007078 -0.31248 0.24127 -0.5193 0.39624 -0.10305 0.20775 0.55191 0.55957 0.24275 0.42904 0.42429 0.012269 -0.15456 -0.54753 -0.40618 0.031521 0.11117 -0.37616 0.40124 0.1957 0.056901 -0.19246 -0.40195 -0.83103 -0.42399 -0.028167 0.095407 -0.54282 0.65414 -0.48732 0.33338 0.15123 -0.19553 -0.26261 -0.10848 0.33292 0.23814 -0.04561 -0.85781 -0.094714 -0.031556 0.2976 0.39974 -0.21542 0.27901 0.21289 0.47241 0.15957 -0.19387 -0.13582 -0.073368 -0.36773 0.69865 0.12863 0.35448 -0.27059 -0.3336 -0.90887 -0.33852 0.20179 0.1027 0.6084 -0.65403 -0.66844 0.38952 0.02113 -0.56988 0.021832 0.43398 0.09745 -0.1175 0.23646 0.13578 1.0904 -0.23455 0.8354 0.32583 -0.71435 -0.75899 0.47722 0.33338 0.14679 -0.064399 -0.1323 0.40037 0.15671 -0.24523 -0.16499 -0.64619 0.038757 0.78937 0.046125 -0.14075 -0.44331 0.61366 -0.10891 -0.40976 0.084192 -0.30415 0.075476 -0.089225 -0.67863 0.41718 0.17088 -1.0713 0.07696 0.22543 0.28105 -0.62393 0.13714 0.039407 -0.059606 -0.63609 -0.23828 0.40829 -0.49508 -0.33755 0.15514 0.18404 -0.34705 0.2819 0.77317 -0.077916 0.20851 0.70607 0.17975 -0.54015 -0.22163 0.071117 -0.5618 -0.53454 -0.004712 0.20641 0.39076
Ở 0.9013 -0.82991 -0.45527 0.63555 -0.40385 -0.17525 0.30958 0.60726 0.2316 -2.1216 0.33239 0.13474 -0.51318 -0.062312 0.39842 0.036893 0.19978 -1.038 0.015566 0.053232 -0.14704 -0.074563 -0.071943 0.29027 -0.424 -0.59135 0.51959 0.12856 -0.1737 -0.22396 0.09118 0.036606 -0.11393 0.15933 -0.37227 0.25765 -0.18037 0.1053 -0.20758 0.22228 -0.79622 -1.0003 -0.13344 0.15157 -0.5638 -0.11357 0.6356 -0.54135 0.18764 -0.37601 0.48627 0.59328 0.46514 -0.035273 0.21827 -0.25544 -0.025827 -0.21457 0.38368 0.31757 0.095507 -0.23237 0.83126 -0.45864 -0.11933 0.54143 -0.78734 -0.15403 -0.59587 0.078763 -0.17803 -0.13903 -0.88464 0.024204 -0.37732 -0.046891 -0.025433 -0.28875 -0.35527 -0.066252 -0.53842 0.077779 -0.28068 0.054802 -0.15726 1.0221 0.65875 -0.77823 -0.93883 -0.17469 0.60959 -0.071927 -0.60373 -0.066037 -0.005507 0.076493 -0.1901 0.6582 0.010111 0.62375 -0.34218 0.32543 0.044611 0.69969 -0.78411 -0.18384 -0.57945 -0.56646 -0.51157 -0.057285 0.42649 0.57913 -0.18324 0.55624 0.40488 0.093272 -0.12335 -0.29154 0.13823 -0.44093 -0.14855 -0.15346 0.18354 -0.21834 0.68807 0.13309 0.27161 -0.032106 0.038878 0.10396 -0.44311 0.034516 -0.36208 -0.10779 0.16225 0.47159 0.084811 -0.27701 -0.36933 -0.66093 0.9862 -0.46943 -0.96646 -0.45214 -0.27975 -0.26571 0.44622 0.1259 -0.51097 0.76454 0.33085 0.30432 -0.95458 -0.14468 0.34291 0.2991 0.80146 -0.087465 -0.52051 0.03987 -0.24975 0.093244 -0.006743 0.46034 0.23309 0.90287 -0.13392 0.68573 -0.20334 0.24483 -0.31426 -0.28489 -0.54223 0.29141 1.02 0.31751 -0.53413 -0.070448 0.32752 0.30413 -0.056415 0.14587 0.1178 0.19806 -0.1065 0.27584 0.12864 -0.29846 -0.034917 0.22432 0.50887 -0.016964 0.097667 0.013549 -0.036265 0.15392 -0.07533 -0.060577 0.3939 -0.34087 -0.22245 0.019123 0.32936 0.13457 -1.0007 -0.46203 -0.034559 0.40406 -0.006343 -0.39842 -0.72093 0.53738 -0.076665 0.39654 -0.15557 -0.5184 0.6099 -0.098229 0.73384 -0.29842 -0.17981 -0.14666 0.55272 -0.4269 0.41202 0.16641 0.071903 -0.078744 -0.49828 0.057199 -0.085934 0.59784 -0.20717 -1.1057 -0.088481 0.19695 0.014233 0.20489 0.7958 -0.60871 -0.15097 -0.31775 0.3543 -0.17719 -0.28747 0.84464 0.24685 -0.13855 0.18533 -0.14311 -0.51726 0.20904 -0.028542 0.21036 -0.41557 0.082636 -0.2813 0.63969 0.07278 -0.26264 -0.61177 -0.87869 0.039206 -0.16571 -0.18102 0.51797 -0.27827 -0.008858 -0.40318 0.7956 -0.22726 0.67207 0.055057 0.39819 0.46896 0.66983 0.047735 -0.55506 0.20137 0.1645 -0.90034 -0.62558 -0.11866 -0.13247 -0.073341 -0.17536 -0.17663 0.15296 -0.033033 0.049365 0.65243 0.12283 -0.32288 -0.089847 -0.046105 0.060873 0.080923 0.192 -0.11617 -0.41405
N 0.275428 -0.351327 0.090063 0.034882 -0.071439 0.035204 0.033037 0.124956 -0.012416 -1.534887 0.33287 -0.000721 -0.127974 0.200616 0.298568 -0.007589 0.155986 -1.105475 0.27106 0.078557 -0.009318 0.098115 0.147099 0.030026 -0.051655 -0.064936 0.131192 -0.01868 -0.183982 -0.143972 0.125091 -0.148323 0.035327 0.017381 -0.237186 0.113017 0.072622 0.006356 0.077926 0.280901 -0.061204 0.012609 -0.025713 0.039165 0.004881 -0.092475 0.203942 -0.199484 -0.033081 0.016568 0.093445 -0.070863 0.023681 -0.018252 -0.027525 -0.055737 0.025176 -0.001137 -0.03246 0.058581 -0.038681 0.008397 0.04139 -0.369459 -0.193645 0.134695 -0.002716 -0.144353 0.049916 -0.196827 -0.059907 0.009708 -0.183595 0.030797 -0.117809 -0.022625 -0.066978 0.022753 -0.019903 -0.191783 -0.070118 -0.138059 0.17034 0.048523 0.02406 0.247042 0.391849 -0.299221 -0.323279 -0.091988 0.144591 0.068589 0.051839 0.055773 -0.163614 0.246056 -0.093416 -0.005775 -0.036705 0.124655 -0.012093 -0.154315 0.112899 0.033308 -0.069311 -0.401657 -0.049649 -0.143544 -0.117834 -0.12615 -0.074218 0.332364 -0.079121 0.030231 -0.087161 0.023701 -0.037116 -0.079422 0.044159 -0.067155 -0.062762 -0.034463 -0.000108 0.145806 0.160771 -0.052038 -0.022632 0.113495 -0.005755 0.127129 -0.148258 -0.076826 0.02626 0.029401 -0.182643 -0.019188 -0.016169 -0.005994 -0.010125 0.075338 0.900524 0.004264 -0.267294 0.020801 0.005675 0.106265 0.14427 0.010484 0.079353 0.092307 -0.007159 0.044654 -0.042709 -0.018194 0.15686 0.152075 0.117217 -0.143376 0.042403 0.127257 -0.102214 0.011736 -0.037238 0.194271 0.27149 0.216314 -0.109452 0.113183 -0.255157 0.024652 -0.022261 0.04085 0.137854 0.073872 0.181071 -0.072024 0.027415 -0.061469 -0.226286 -0.004944 -0.052004 -0.0247 0.090432 0.196251 0.24435 -0.067027 0.184771 -0.126047 -0.037897 0.020155 0.247524 0.033672 0.133766 -0.127583 -0.028118 -0.276452 0.104225 0.138496 0.135193 -0.254343 -0.051364 0.263819 0.047686 -0.1416 -0.282744 -0.134912 0.002651 0.045112 0.146697 -0.003163 0.139884 0.185633 -0.023167 0.369052 -0.119866 -0.219141 0.165001 -0.303527 0.417151 -0.073457 0.085092 -0.043837 0.200345 -0.223187 -0.106351 -0.093842 -0.033002 -0.143572 -0.146331 -0.253181 0.156216 0.018769 -0.179715 -0.100194 0.157417 0.15446 -0.00273 0.073976 0.07085 -0.132581 -0.109487 -0.106214 -0.08881 -0.237117 -0.112738 0.226426 0.124837 0.108067 0.34863 0.056907 -0.026683 -0.024229 0.037252 0.053499 -0.133794 -0.51184 -0.041058 0.175787 0.015793 -0.064995 -0.112741 -0.303854 0.079448 -0.125552 -0.059853 0.289281 -0.024032 -0.064548 -0.398994 0.074863 -0.183634 0.083144 0.118819 0.253994 0.095131 -0.045256 -0.015351 -0.085734 0.018488 -0.297551 -0.127834 -0.171826 -0.079129 0.033995 0.134429 0.117369 -0.166023 0.176868 -0.22371 0.076118 0.414823 -0.119279 -0.111262 0.009311 0.029467 0.038174 0.104655 0.149891 -0.104225 -0.168225
ĉ 0.001794 0.014989 -0.92856 -0.2136 0.28097 0.60875 -0.42682 -0.29513 0.19291 -1.4879 0.85311 -0.079468 -0.1552 -0.19574 0.59218 -0.14402 -0.18479 -1.0401 -0.085187 -0.61784 -0.13414 0.55052 -0.24556 -0.18646 0.15588 -0.95302 -1.388 -1.3578 0.40307 0.38939 0.19662 -0.40088 -0.047028 -0.43957 -0.37589 -0.25844 0.009315 -0.35105 -0.00565 0.89958 0.11877 -0.15054 -0.89495 0.3499 -0.20887 0.019881 0.4332 0.033886 0.089698 -1.1341 0.035971 0.40118 0.10765 -0.18485 -0.5759 -0.55162 -0.28181 0.27187 -0.27675 -0.15304 0.29256 0.42384 0.29478 -0.37043 -0.1867 0.22443 -0.58533 -0.00636 -0.36901 -0.37714 -0.17647 0.75164 -0.12087 -0.22518 -1.2212 0.63133 -0.22953 -0.31435 0.10182 -0.29985 0.27117 -0.12862 -0.070852 0.44726 -0.005877 0.42023 0.80938 -0.64925 -0.23823 -0.23745 0.54372 0.17167 -0.020139 -0.58154 -0.14789 1.0464 -0.61293 -0.59128 0.7577 0.052487 0.51011 0.36106 -0.060529 -1.3803 -0.48565 -0.6963 0.59829 -0.1516 0.013362 0.28028 -0.65792 0.30568 0.2547 0.070364 -0.12954 0.24526 0.007606 0.0593 -0.18959 -1.0355 -0.94438 0.89483 -0.11833 0.77099 -0.16108 0.047975 0.59089 -0.019018 -0.1629 -0.17907 0.44604 0.65069 0.43946 0.98705 0.19694 0.47508 0.19586 0.20327 -0.34841 -0.38964 0.95619 0.15993 -0.6493 0.88399 0.65393 -0.3689 0.21321 -0.57327 -0.067843 -0.15946 0.36883 -0.054217 0.27901 0.063354 0.000176 -0.64556 -0.040502 0.13426 0.48379 -0.15054 0.32478 0.47184 0.10961 0.28252 1.0031 0.32989 0.11937 0.4668 -0.037595 -0.044497 0.11629 -0.40098 0.49444 0.41979 0.18503 -0.50056 0.58141 -0.41668 0.15184 -0.54221 -0.023715 0.018872 0.67685 -0.4822 0.043401 0.4479 -0.079361 0.3431 0.74575 -0.91344 0.60793 -0.19054 0.69796 -0.83236 0.29281 -0.85934 -0.38518 -0.59002 0.44061 -0.080414 0.076918 0.12679 0.34541 0.26405 -0.90167 -0.68193 0.33629 0.31921 0.73164 -0.011354 0.6246 0.86165 0.82439 -0.0737 -0.35591 -0.10326 0.11146 -0.48989 0.7715 0.38253 1.0827 -0.18362 0.64365 0.29232 0.1901 -0.069917 -0.49858 -0.090559 0.14257 -0.61918 0.13248 0.22236 -0.35378 -0.63166 -0.45328 -0.061254 0.2242 0.2586 -1.0899 -0.098148 -0.25811 0.15826 0.31635 -0.94541 0.005339 1.4613 0.90104 0.079038 -0.054335 0.46601 0.42831 -0.026037 1.0491 -0.001448 0.18418 -1.0887 -0.13596 0.18811 -0.51053 0.16455 0.11358 -1.0349 0.22167 -0.037835 0.40988 -0.12221 0.58642 -0.63859 -0.50996 0.89919 0.24339 -0.66137 -0.4015 1.1579 0.19454 -0.73215 -0.1958 0.57045 -0.057551 -0.67905 0.15531 0.036239 0.73437 -0.79458 1.3037 0.12466 -0.34366 1.2919 -0.2421 0.41436 0.90353 -0.16182 -0.5601 0.30755 0.024675 -0.16182 -0.70952 -0.53832 -0.24127 0.2761
Ӝ 0.73874 0.86762 -0.39567 0.002579 0.1339 0.047201 0.20183 -0.1977 -0.091607 -1.8707 0.55972 -0.55887 -0.53918 0.50649 -0.37109 -0.093176 -0.056086 -0.5582 -0.59834 0.86396 -0.78964 0.06404 -1.3446 -0.19119 -0.29718 0.47316 0.58028 0.18558 0.5417 -0.56938 0.4214 -0.29056 -0.29493 0.60641 -1.2779 1.1046 0.18649 -0.1835 0.15212 0.087175 -0.39161 -0.40953 0.04071 -1.2758 0.75735 -0.01513 -0.55501 0.024009 -1.1682 -0.21685 0.94854 -0.27545 -0.68738 -0.46022 0.26941 1.0252 0.6319 0.15291 0.42902 0.41802 0.11579 -0.075095 0.00122 -0.53358 -0.92576 0.75246 -0.46314 0.6136 -0.23204 -0.88451 -1.4285 -0.043594 -0.80755 -0.029722 -1.6826 0.087503 0.14559 -0.14799 -0.28449 -1.4237 0.047413 -0.5419 -0.26881 -0.52288 -0.13878 1.2405 0.16636 -0.64193 -0.38746 -0.25636 0.84563 -0.61822 -0.10088 0.23685 -0.48853 1.0821 0.38858 1.3398 -0.73177 0.12683 -0.43825 -0.019379 -1.1387 -0.5248 -0.25429 0.089946 -0.26349 -0.44078 -1.3611 -0.76556 -1.1798 0.98287 0.38508 -0.83075 0.20255 0.94224 0.28243 -0.84639 0.25712 -0.55704 0.46945 0.20944 -0.10795 0.1615 0.5128 -0.70773 1.2586 -0.068635 -0.11722 0.34401 -0.089013 -0.44342 -0.42459 0.2265 -0.51015 0.14954 0.25074 0.44324 0.15173 -0.2715 0.3969 -0.053953 0.048817 0.69122 -0.54059 0.12113 0.58227 0.44553 0.16797 0.5015 -0.19807 0.75025 -1.1608 0.33602 -0.41306 0.73953 0.25958 -0.25676 0.25475 0.95447 0.19046 0.89498 0.59867 -0.42355 0.59553 0.89376 0.047763 -0.056342 -0.14727 0.20195 -0.5746 0.088775 0.16984 0.21452 -0.27401 -0.61859 1.2352 -0.92684 -0.64307 -0.56773 -0.008993 0.28462 -0.20194 1.2731 0.22084 -0.75875 -0.68134 0.34389 1.2683 -0.17384 -0.061711 -0.29876 0.022889 -0.67103 0.034354 -0.1223 0.86998 0.30054 -0.078953 0.12537 1.1033 -0.86644 -0.74736 -0.22607 -0.32019 -1.348 1.1736 -0.24968 -1.5666 -0.17144 0.50303 0.1828 1.2864 0.17587 -0.66989 0.089541 0.27005 -0.10338 0.64092 -0.46477 0.12797 0.093543 0.093681 0.29669 0.20171 -1.0118 -1.0928 0.36844 0.15989 0.36213 0.52971 -1.0521 -0.83706 -0.19505 0.2036 0.28597 -0.83883 -0.74141 0.17654 -0.84994 -0.56298 0.80235 0.20306 0.48191 0.86094 0.21973 -0.33922 0.48185 -1.1963 1.062 -0.77079 0.14943 -0.12799 -0.25972 0.14255 -0.1644 -1.6508 -0.10589 -0.088951 -0.29518 -0.77639 -0.27818 -0.0855 -0.95373 -1.9973 0.51765 0.83427 0.80742 -0.72369 -0.017012 -0.57099 -0.30346 -1.2424 0.166 -0.67073 1.3152 -0.17266 -0.24074 -0.17619 -0.56866 0.25278 -0.70194 0.35404 -0.23986 0.67776 -0.30247 0.098091 -0.44403 -1.2498 0.18295 1.0258 1.3628 -0.14846 -0.46569 0.013188 -0.4203 -0.53429 0.33356 0.52311 0.088352
ⓣ 0.037054 0.16876 0.16995 0.12542 0.51429 0.74167 -0.60778 0.30013 -0.40784 -1.6785 0.22848 0.049581 -0.11166 0.048136 -0.29907 0.36869 -0.46598 -1.0628 0.50893 0.84342 -0.075401 0.36077 -0.40906 -0.17597 0.63652 -0.46012 0.42007 0.72526 -0.059981 -0.10776 0.62199 0.25242 0.72259 -0.002508 -1.5475 1.0465 0.71708 1.5825 -0.11153 0.96989 -0.50903 -0.73708 -0.10363 0.82269 0.70667 0.54004 -0.31876 0.3074 0.6025 -0.14985 -0.46148 -0.38598 -0.27629 -0.074702 0.55463 0.3602 0.39324 -0.076282 0.66036 0.20463 0.49929 0.8642 -0.047823 -0.94369 -0.52803 0.42072 -0.16545 -0.70688 -0.62417 -0.42706 -0.78644 -0.18218 -0.75512 0.076729 -0.11049 0.23882 -0.25283 -1.0575 0.12433 -0.094885 0.27948 0.40443 -0.93278 0.23412 0.01338 1.441 0.71763 -0.47969 0.071787 -0.10284 0.35929 -0.17597 1.0055 0.78438 -0.28313 0.41843 -0.061371 0.001736 -0.87426 0.022108 0.76166 0.18968 -0.67181 -0.31927 -0.37254 -0.4118 0.17379 -0.3058 -0.8771 -0.43764 1.1684 0.46418 1.0316 -0.23106 -0.36054 0.41647 -0.22538 0.20111 0.024289 1.1067 0.45402 0.29965 0.25818 -0.11203 -0.17558 -0.096343 0.2737 0.3312 -0.28144 0.64209 -0.44607 -0.83447 0.51932 -0.007854 -0.44165 0.10517 0.23932 -0.86305 0.3153 0.065194 0.57584 0.83812 -0.027803 0.19227 -0.85803 0.16827 0.68842 -0.24575 0.42764 -0.31215 1.2852 -0.41061 -0.68279 -0.14553 0.22427 0.032681 -0.37761 0.67931 0.52976 0.95103 -0.27045 -0.24908 -0.56771 0.54813 -0.42172 0.98164 -0.053374 -0.8015 -0.044189 -0.16459 -0.35678 -0.28682 -0.66296 0.14476 -0.20495 0.033072 0.27512 -0.002111 -0.14034 0.33039 0.42111 0.19627 -0.57287 0.58592 -0.16143 0.055477 -1.0195 -0.061746 0.31283 0.099382 0.80993 -0.43721 -0.000716 1.1536 0.31254 -0.1518 1.3685 -0.3165 2.0006 0.17619 -0.53832 1.3135 -0.13779 1.052 -0.009852 -0.65489 -0.28924 -0.14857 -0.13083 -0.26015 0.74953 1.0418 -0.33458 -0.064782 0.12884 -0.63943 0.50946 -0.99231 0.98971 0.19343 -0.28099 -0.69118 -0.082799 -0.17178 -1.3302 0.004831 -0.23745 -1.1563 0.78687 -0.22802 -0.15709 -0.079427 -0.07456 -0.23801 -0.3341 0.033119 0.30152 -0.41788 1.1534 -0.73153 0.77725 0.30613 -0.093472 -0.17883 -0.4102 0.73385 0.42204 0.5216 0.26814 0.65575 -0.4304 0.90631 -0.28061 0.04372 -0.91425 -0.041074 -0.048409 0.81063 0.49025 -0.076876 -0.30588 0.4624 -0.23448 -0.76359 0.29634 0.4163 -0.028254 0.90133 -0.18538 0.51219 0.28623 -0.39745 -0.22589 0.86348 -0.43688 -0.30464 0.069956 -0.026 -0.73087 -0.73735 -0.4814 -0.16404 -0.70605 0.55598 0.023563 0.13332 -0.36879 0.76236 -0.76538 -0.69238 0.43306 0.1968 -0.68848 0.52688 1.0039 -0.60014 -0.13992 0.16585 -0.10319 -0.19027
⏪ 1.3295 0.14687 0.79298 0.65864 -0.8276 0.43574 0.32424 -0.18274 0.002886 -2.5024 1.0154 -0.77573 -0.20811 1.2421 0.20268 0.84686 -0.56136 -0.924 0.68531 0.25648 -0.036543 -0.7374 -0.63941 -0.29005 0.17363 -0.49449 0.23303 -0.62841 0.25151 -0.0184 0.019146 -0.076344 0.053659 0.42051 -0.042001 1.3702 0.67001 0.31216 -0.17543 0.8199 0.24037 -0.78248 0.21649 0.13674 0.65164 -0.74692 0.80525 0.33992 -0.48636 -0.69956 -0.029421 -0.75577 -0.39971 -0.49382 -0.59684 -0.16224 -0.23574 0.071857 -0.4479 -0.25249 -0.94339 -0.40709 0.74166 -1.2879 -1.1004 0.76173 -0.076748 -0.25883 0.72145 -0.57672 0.1586 -0.44753 0.69074 -0.20162 0.48476 0.21278 0.29402 0.53605 -0.34265 -0.31446 -0.3169 0.12469 -0.4766 -0.29483 -0.72832 0.13042 0.81207 0.14902 -0.48127 0.010242 -0.39392 0.60979 0.84206 0.89035 -0.42948 0.42335 0.96974 -0.48347 0.208 -0.27929 -0.65686 -0.66568 0.20341 0.19567 0.057195 -0.1755 0.56361 -0.49074 -0.11186 0.057697 -0.73423 0.052618 -0.30403 -0.13593 0.91658 0.47354 -0.018252 -0.52918 -0.51637 -0.51862 -0.021685 -0.86517 0.081149 0.31567 -0.37597 0.29399 -0.56284 0.12593 0.059933 0.2745 -0.77436 -0.14985 -0.69349 0.12226 0.014247 -0.12594 -0.24601 -0.33019 -0.61787 0.66051 1.2979 -0.54331 -0.089977 -0.2068 -0.73533 0.71146 0.71051 -0.056658 -0.16418 0.45091 -0.34191 -0.40758 -0.50691 0.43037 0.55149 0.41191 0.53631 -0.40633 0.26922 0.66001 0.59842 0.26379 -0.44547 0.72501 -0.094652 0.21035 -0.15538 -0.22731 -0.43947 -0.85516 0.52077 0.030324 0.49109 1.3526 -0.28392 -0.68122 -0.021322 -1.0038 -0.12327 0.41388 0.48957 1.1196 -0.013643 0.51171 0.43249 0.30556 0.9706 -0.37753 0.27812 0.054499 0.14485 -0.13157 1.0126 -1.0128 0.26823 -0.45303 0.90787 0.91592 -0.42942 -0.65132 0.26154 0.025883 0.061549 -0.11602 -0.24555 -0.75706 0.64187 0.57433 -0.25367 -0.24331 1.079 0.43598 0.65666 0.4761 0.28326 -0.57017 -0.20276 0.6126 0.76404 -0.1824 0.5596 0.061949 0.72529 -0.03197 -0.96991 -0.51049 -0.51535 0.083906 -0.39174 0.20642 0.1788 -0.28959 -0.31161 0.20307 0.18539 0.18421 0.14623 0.41129 -0.079088 0.62539 -0.070885 -0.83072 -0.42173 -0.15187 0.54284 -0.12607 0.37389 0.41285 0.48659 -0.33007 -0.066704 -1.3126 -0.74354 0.52545 0.22436 -0.21148 -0.52323 0.59293 -0.70049 0.008664 -0.39133 -0.71139 0.23298 -1.2147 0.14857 0.16828 -0.82348 -0.53428 -0.53458 0.2953 -0.52688 0.27066 0.16739 0.50402 -0.32547 1.0397 0.042848 -0.62436 1.0634 0.62457 0.24417 -0.65081 -0.72831 0.4481 -0.014809 0.11409 -0.54731 -0.042911 -0.48742 -1.0308 0.94635 -0.18833 -0.35209 -0.25174 -0.14508 -0.46628 -0.69826 0.26887 0.87051 -0.34159
Ǥ 0.63708 -0.36251 0.11685 0.3978 0.50535 0.74158 0.59466 -0.69284 0.4727 -1.7942 0.67864 -0.3217 0.082717 0.90739 0.74397 0.0346 -0.23661 -0.3898 0.3913 0.16049 0.22815 0.21688 -1.0707 -0.022543 -0.48276 -0.45314 -0.069714 0.2402 0.34789 0.78891 0.10784 -0.74079 -0.42393 -0.74065 -0.87524 0.25276 0.26478 1.1129 -0.31245 -0.40112 -0.20808 -0.58253 0.062644 0.29177 0.25799 -0.1649 -0.51003 0.59839 -0.007981 0.068044 -0.74759 -0.003256 0.54524 0.11066 0.50631 -0.81907 -0.43129 -0.25201 0.28696 0.13685 -0.48535 0.075496 0.99748 -0.68508 -0.83485 0.27311 -0.10443 0.090263 -0.16273 -0.59974 0.2336 0.40878 -0.88422 -0.32196 -0.82347 0.21605 -0.69928 0.34167 0.15598 -0.72593 0.32333 0.086636 -0.32995 0.37137 -0.36777 0.46357 1.5749 -0.28751 -0.94195 0.12728 0.2563 -0.16794 0.5922 -0.018157 -1.2944 0.50602 0.30588 -0.026458 -0.41358 0.40846 -0.3812 -0.14185 -0.22299 -0.13309 -0.1115 -0.44952 -0.66629 -0.4156 -1.2917 -0.24517 0.62455 0.2407 -0.28816 -0.21281 -0.10123 0.65512 -1.0397 -0.67975 0.26206 -0.8888 -0.010006 -0.19219 -0.25606 0.25601 0.13868 0.18111 -0.73985 0.16578 -1.4873 -0.026738 -0.21459 0.042509 0.45844 0.76329 -0.44049 -0.12858 -0.31216 0.62114 -0.52713 0.94838 1.3492 -0.83874 -1.0482 -0.2608 0.21753 -0.061324 0.70927 0.47593 -0.16372 0.52773 -0.02404 0.60744 -1.2406 0.49577 0.035797 -0.22483 -0.32717 -0.30109 0.69627 -0.047406 -0.51746 -0.15629 -0.2879 0.57114 0.28795 0.34771 0.13419 -0.35825 -0.99852 -0.25521 -0.14844 0.35845 0.088512 0.91881 -0.13579 -0.62162 0.30104 0.24163 0.56957 -0.31327 -0.57673 0.42273 -0.19769 0.64109 0.65627 0.3149 -0.11292 -0.20818 0.1815 -0.17109 0.52295 0.53261 0.74162 -0.36949 0.57727 -0.89463 -0.78832 0.87801 0.373 0.22289 0.47548 0.052705 0.6191 -0.5999 -0.24958 -0.30961 -0.23333 0.4846 0.032473 0.077802 -0.21574 0.31608 0.047752 -0.28171 -0.40064 0.077312 -0.093118 -0.8267 0.33736 -0.16816 0.6493 -0.34422 -0.012736 0.057012 0.17617 0.72812 -0.2155 -0.35385 -0.40148 -0.87427 0.29402 -0.83411 -0.17569 -0.1697 0.32928 -0.64854 -0.32018 0.14558 -0.14955 -0.062318 0.13339 0.14795 0.73771 -0.51437 0.06852 -0.097654 0.18524 -0.50337 1.3752 0.18056 -0.45681 0.16073 -0.27229 0.31621 -0.11829 -0.42176 0.20107 0.64709 0.63188 -0.89442 -0.56116 -0.46346 -0.063394 -0.8022 -0.84755 0.16085 -0.30309 0.43144 0.25911 0.11192 0.22422 0.44137 -0.1304 0.29151 -0.82841 0.21555 0.18216 -1.0677 0.48919 0.024935 -0.33233 -0.43348 -0.074013 0.38499 0.3176 0.21145 -0.49319 1.0143 -0.29426 -0.5508 0.059383 0.12506 -0.66191 -0.34358 -0.22224 -0.026166 0.25465 0.21239 0.050803 -0.46023
ℜ 0.60635 -0.24855 -0.41075 0.82565 0.80764 1.0059 -0.081664 0.30951 0.20975 -1.5991 0.95236 -0.026932 -0.11673 -0.38544 0.21724 0.40186 0.41601 -0.93369 0.041748 -0.20338 0.4476 0.28698 -0.50672 0.23695 -0.31103 -0.14621 0.75064 0.20768 -0.17718 0.25489 0.5163 -0.86299 0.5444 0.60951 -0.66669 1.2038 0.90448 0.00963 -0.053085 0.83877 0.47223 0.05616 -0.05345 -0.030986 -0.67586 -0.3583 -0.029445 0.49707 0.4197 -0.34612 0.47646 0.44911 0.36177 -0.10923 0.61784 0.29151 0.021919 0.26881 -0.098668 0.33375 0.36661 0.48038 -0.49842 -1.6885 0.95743 -0.030457 0.078518 0.36022 -0.26963 -0.40588 0.33456 0.016018 -0.84441 0.28761 -1.075 0.35533 -0.098269 0.16917 0.10702 -0.086353 0.29587 0.57685 0.23068 1.0739 -0.41151 0.77051 1.0929 -0.15287 -1.042 -0.53073 0.038824 -0.28933 0.20547 0.23337 -0.57409 0.5181 -0.23766 -0.052588 -0.72399 0.033476 0.47724 -0.36351 0.94124 -0.80356 -0.39906 -0.37483 0.010039 0.33748 -0.48574 -0.21172 -0.64037 0.66473 -0.19153 -0.35096 0.39261 0.24218 0.37662 -0.36665 0.35966 -0.48586 -0.067501 0.33494 -0.32464 -0.46588 0.11843 0.003869 0.78747 -0.48161 -0.59781 0.38292 -0.32706 0.61705 0.64759 0.68249 0.047475 -0.68024 0.19909 -0.62914 -0.64075 -0.39396 0.85139 0.086039 -0.4486 0.74002 0.50973 -0.60981 0.024569 0.31506 1.0049 0.28852 -0.16132 -0.5018 -0.37566 -0.77409 -0.47334 -0.066585 0.17882 0.26144 0.96472 0.65001 -0.059342 0.71341 -0.4758 0.67224 0.68335 -0.29441 -0.1149 0.15708 -0.1483 -0.57509 0.31188 0.26977 0.32383 0.8558 0.026375 -0.41838 0.084509 0.17879 -0.000912 -0.37869 -0.12901 0.89696 0.60949 -0.23492 0.23732 0.3392 -0.37975 -0.089008 0.45345 0.1562 -0.28512 -0.49211 0.29021 -1.342 0.45272 -0.58995 -0.54846 0.35048 -0.024988 0.41373 -0.2456 0.1217 1.2391 0.20767 -0.90145 -0.64867 -0.007026 0.56128 0.66505 0.069281 0.38433 -0.07872 0.83578 -0.16903 0.016631 -0.34101 0.13368 0.07275 0.78363 0.14333 0.4925 -0.003525 0.41352 -0.29676 -0.74846 0.031102 -0.024851 -0.55694 0.27087 -0.69813 -0.16374 0.21468 -0.37188 -0.81644 0.18579 -0.38427 0.24317 -0.33113 -0.75123 0.069601 -0.27436 0.74843 -0.036681 -0.72631 -0.074121 0.39438 0.77707 -0.11194 0.11726 -0.3136 0.52178 -0.69793 0.34709 -0.44076 -0.6741 -0.38232 0.35132 0.13021 -0.23412 -0.21555 -0.078456 -0.3755 -0.17605 0.77843 0.90239 0.88646 -0.12001 0.24404 0.16557 -0.63373 -0.48309 0.19945 -0.76334 0.056302 -0.034739 -0.19805 -0.13283 0.3298 0.23235 -0.35022 -0.43504 -0.33173 -0.50671 -0.41612 -0.003301 0.23755 0.017739 0.60773 -0.27069 0.49366 -0.1017 -0.57106 -0.31647 0.33165 -0.05548 -0.41391 0.79166 -0.095218 -0.005348 -0.50471
∨ 0.021651 -0.96787 -0.59844 -0.32618 -0.52731 -0.44676 0.60429 0.004429 -0.26116 -2.2698 -0.15063 0.059535 -0.062872 -0.13809 -0.15096 0.09778 -0.12912 -0.32224 -0.31803 0.10307 -0.16433 0.20529 0.59008 0.018103 0.19912 0.10692 0.11296 -0.036552 -0.051835 0.070065 -0.31903 -1.2696 0.47718 0.84108 -0.060518 -0.3259 -0.24085 -0.25025 -0.10557 -0.60089 -0.2157 -0.7167 -0.06079 0.89992 0.063327 -0.88859 -0.16161 0.8174 0.63735 -0.64507 -0.41638 0.77327 0.3455 0.11763 -0.48316 0.58393 -0.47833 0.95575 -0.56026 -0.37626 -0.4863 -0.265 0.98906 -0.78466 -0.23097 0.27544 0.44415 0.83655 0.059975 -0.15188 -0.27414 0.20969 0.022347 0.14741 -0.34964 0.64592 -0.32128 0.11556 -0.29198 -0.36941 -0.30115 -0.26557 -0.26547 0.2009 -0.15416 -0.14151 0.53538 -1.1386 -0.66061 -0.38345 -0.32825 -0.27808 0.23831 -0.064226 -0.91641 0.59618 0.53177 -0.086486 0.31687 -0.21439 0.65503 -0.33494 0.5314 -0.81798 -0.061601 0.13059 -0.96546 -0.025377 -0.29249 0.061397 0.083188 0.41794 0.38328 0.89947 0.040892 0.71708 0.039262 -0.70051 0.52904 -0.44359 0.483 -0.17007 0.17777 -0.24894 -0.11684 -0.76114 -0.39961 -0.16756 -0.38854 0.27851 -0.4929 -0.076467 -0.56345 0.24661 0.020458 -0.077863 0.25835 -0.038584 -0.20706 -0.10532 0.85907 -0.32198 0.70651 0.92533 -0.24597 0.1786 0.62787 -0.49952 0.92166 0.11362 -0.19022 0.035924 0.3383 0.35893 0.17792 0.003469 -0.64752 -0.35557 0.83006 1.0943 -0.93574 0.75106 -0.26428 0.3251 0.57012 -0.80305 -0.42997 -0.23111 -0.23085 -0.47332 0.57856 -0.20408 -0.56402 -0.26045 0.99032 -0.45278 0.029881 -0.34883 0.14451 -0.20368 0.9973 0.75066 0.031974 -1.2647 0.057701 0.27698 -0.53807 -0.18162 0.055384 -0.37436 0.76376 -0.85949 0.059368 0.17923 0.60095 -0.67232 0.61384 -0.084727 0.41246 1.2446 0.25619 -0.10813 0.3717 0.20392 -0.37957 -0.093245 -0.24822 0.22421 0.43456 0.6138 -0.6835 0.010484 -0.012018 0.48996 0.31035 0.25667 -0.4742 0.49365 0.23032 0.28971 0.69751 0.1206 0.098192 0.43368 -0.51273 0.61359 -0.009116 0.1514 -0.54216 0.31792 0.048674 -0.43052 -0.2513 -0.27283 -0.038277 0.021652 -0.85888 -0.002727 -1.4672 0.5586 0.69375 0.1358 0.19957 0.34776 -0.32044 0.38158 0.47242 -0.20104 -0.083455 -0.69961 0.023708 -0.52632 0.35004 -0.42296 0.49164 -0.49107 0.33918 0.50846 -0.020447 -0.055849 -0.46288 -0.15036 -0.54828 -0.42967 -0.56201 -0.16849 0.68817 -0.39042 -0.085225 -0.54274 -0.52589 -0.13634 -0.16782 0.051964 -0.30702 -0.47688 -0.58154 -0.20415 -0.42423 0.095524 -0.2561 -0.36863 -1.0133 0.23138 0.33747 -0.006542 0.14607 -0.012445 0.15008 -0.22034 0.49605 0.081893 -0.50288 -0.25176 0.20568 0.000598 -0.32119 -0.14281 0.50893 0.64688
٣ 0.019174 -0.61097 -0.46373 0.37008 -0.00203 -0.22663 0.41091 0.37037 0.16528 -0.31002 0.081599 -0.41764 -0.30361 0.16077 0.11575 0.024011 0.16418 -0.31776 -0.056087 0.19135 -0.063301 -0.13787 -0.24268 -0.19883 -0.34989 0.48105 0.18648 0.060336 -0.36767 -0.081134 -0.58754 -0.12494 0.075779 0.17827 -0.032853 0.017085 0.26913 0.42707 -0.074701 -0.20141 0.08942 0.41452 0.14254 0.1443 0.044311 -0.18652 0.19335 0.22122 -0.24817 0.026858 0.08736 -0.4512 0.12036 -0.26707 0.18511 0.3008 -0.083438 0.036589 -0.071585 -0.16165 -0.11213 -0.22584 0.1254 -0.18574 0.04314 -0.032108 -0.27657 -0.16522 -0.107 -0.048103 -0.28327 0.006329 0.13323 0.10061 0.009652 0.24927 0.068945 -0.21145 -0.36723 -0.34025 0.12037 -0.22229 -0.050035 0.021418 -0.075464 0.53415 -0.24946 -0.036556 -0.10927 -0.46406 -0.2123 -0.10016 -0.29148 -0.091148 -0.36052 0.13138 0.40346 -0.10123 0.31049 0.087976 -0.099171 -0.40934 0.54209 0.2888 0.29399 0.006772 0.089686 0.12375 -0.13446 0.23024 0.11289 0.085422 -0.068155 0.35388 0.055068 0.34932 -0.2442 0.039387 0.11985 0.4014 -0.17194 0.11599 -0.46765 -0.39373 0.51448 -0.081231 -0.215 -0.13201 -0.14557 -0.25581 -0.09487 0.28068 0.15368 -0.1632 0.069293 -0.084536 0.32242 0.086357 -0.10073 -0.029174 0.18562 -0.40144 -0.13338 0.3985 -0.15132 0.079417 -0.31833 0.18536 -0.28176 0.40169 -0.16803 0.21406 0.058943 -0.18421 -0.067343 -0.1174 -0.061924 0.0055 0.097405 -0.19192 -0.087426 0.1802 -0.20258 -0.058799 0.21944 -0.41219 0.11841 0.21122 0.1871 -0.53896 -0.40293 -0.20046 -0.093804 -0.5445 0.099933 -0.070661 0.2195 -0.10582 0.45344 0.15912 -0.34545 0.23853 0.10049 -0.2203 -0.16097 0.080222 0.10735 -0.43354 -0.027536 -0.013581 0.18545 -0.16761 -0.05459 0.33483 0.31663 -0.087076 0.19827 0.43867 -0.27351 0.21591 0.076279 -0.42398 0.046354 0.12811 -0.35203 0.086687 -0.009699 -0.26872 -0.007816 -0.028128 0.32992 0.33627 0.45148 -0.10018 -0.099689 -0.16395 0.05645 0.010594 -0.10335 0.20501 -0.12418 -0.18518 -0.019999 -0.19081 -0.16394 -0.057379 0.004559 -0.28281 0.35093 -0.18384 -0.23863 -0.38314 -0.31411 -0.15344 0.26912 0.16168 0.038418 0.16868 -0.03031 -0.010153 -0.13479 0.33777 0.2286 0.35558 -0.032663 0.08035 0.026669 0.094585 0.11705 0.29928 0.17032 0.24294 0.040178 -0.21196 -0.15022 -0.29847 0.1845 0.25513 -0.005488 0.082183 -0.16622 -0.086127 0.19809 -0.47663 0.20865 0.27286 0.092308 -0.098658 -0.084428 0.2934 0.48915 0.27926 0.2001 0.005111 0.20751 -0.021521 0.035936 -0.052298 -0.26407 -0.33503 -0.5692 0.068418 -0.42861 0.20276 0.041612 0.25813 -0.21187 0.31852 -0.27714 0.016441 0.51786 -0.1139 0.011894 0.2064 0.43722 0.1039 0.093347 0.084145 -0.012039 -0.089771
̌ 0.082926 -1.0046 0.21872 0.46318 -0.082133 0.98976 -0.21318 0.25509 -0.18864 -2.232 1.2198 -0.46236 -0.42556 0.09086 0.28252 0.17297 -0.41959 -0.71572 0.43465 0.88257 -0.051742 0.80258 -0.42557 -0.075739 0.11936 -0.56699 0.26458 -1.1173 0.47416 0.29626 0.05382 -0.094753 0.39343 -0.52727 -0.8413 0.53244 0.50299 0.07758 -1.0587 0.26026 0.11445 -0.40961 0.59131 1.0583 0.78315 0.069825 0.13906 -0.69641 0.25945 -0.37187 -0.69568 0.14876 0.3305 -0.37564 -0.15822 0.75393 -0.022769 -0.063844 0.19761 -0.17802 0.6687 0.017859 0.65194 -0.70015 -0.50661 0.51524 -0.16981 0.45801 -0.16088 -0.3626 0.62861 0.40652 -0.41246 0.10843 -0.036444 -0.21496 -0.11741 -0.87864 -0.56304 -0.19059 -0.63586 0.35929 0.24197 0.3951 -0.42005 0.47061 0.73026 -0.41357 -0.69651 -0.27524 0.087485 0.11546 -0.32151 -0.36732 -0.36036 0.83031 0.018153 0.1131 -0.39012 0.22691 0.49577 0.89128 0.27422 -0.33715 -0.63072 -0.077447 -0.10436 -0.71763 -0.79595 -0.7136 0.1201 0.31997 -0.18334 0.17928 -0.73287 0.83616 -0.23593 -0.36636 0.21792 -0.88342 0.58491 -0.42545 -0.006768 0.37352 -0.2761 0.29278 -0.30778 0.078238 -0.04064 0.044628 -0.57586 0.29882 0.51409 0.15709 -0.38225 -0.15951 0.2323 0.63888 0.42999 -0.61135 0.48455 -0.1301 0.44547 -0.59623 0.35901 -0.89034 0.51815 0.96626 -0.37984 0.52968 0.021623 -0.13706 -0.39652 -0.23393 -0.015608 0.14021 0.44123 -0.087397 0.86684 0.17648 -1.0286 -0.50267 -0.38243 0.81519 -0.098069 0.51 -0.15072 -0.7253 -0.096558 -0.7447 0.26367 0.042645 0.01679 -0.86202 0.21453 -1.144 1.1239 0.28114 -0.6588 -0.4768 -0.075083 -0.068479 0.99755 0.69242 -0.5468 1.0765 0.16085 0.46061 -0.045502 -0.20891 0.41785 0.40003 -0.11628 -1.0675 0.9405 -0.25192 0.15641 -0.3357 0.17572 -0.59757 0.49335 0.53322 0.37828 0.12527 -0.66022 0.1014 -0.04071 0.2189 0.20049 -0.63321 0.26126 0.74312 -0.62708 -0.15447 -0.088627 0.13692 0.80387 -0.12062 0.46546 0.29868 0.35564 -0.26269 -0.5523 -0.51822 -0.83124 0.39728 0.099923 -1.8388 0.014739 -0.28758 0.26292 -0.10453 0.00423 -0.15139 -0.33068 -0.4856 0.34246 -0.18882 -0.30039 0.33498 0.70894 -0.2207 0.073568 0.29974 -0.98889 0.63292 0.2674 0.56599 0.75718 0.2622 1.2787 -0.61804 0.38223 -0.26196 0.98652 -0.51706 -0.067652 0.036308 -0.36377 0.13651 -0.6552 -0.91885 -0.073985 -0.25874 -0.32256 0.16746 0.41374 0.46112 -0.29042 -0.1886 -0.1153 0.056734 -0.199 0.70627 0.11297 -0.72546 1.006 0.85816 -0.81962 -0.59079 -0.78725 -0.38507 0.71405 -0.13472 0.18077 0.21616 0.062838 -0.12278 -0.39125 -0.40024 0.90432 -0.45437 -1.0167 0.66765 0.22559 -0.20539 -0.24519 -0.17967 0.33831 -0.12169
━ -0.053047 -0.98992 -0.098479 0.33563 -1.6585 0.41675 0.47823 -0.61615 -0.30816 -2.0972 0.42882 0.3607 -0.43727 -0.23105 -0.78325 0.34216 0.040905 -0.52718 0.6581 0.95946 0.25888 0.03704 -0.11373 -0.91022 0.5833 0.68131 -0.53707 -0.17915 -0.1887 -0.1763 0.4782 0.126 0.1172 0.095949 -0.96081 -0.14698 0.31479 -0.31457 -0.06682 -0.053455 -0.19002 0.29433 -0.58956 0.11227 -0.7306 -0.59637 0.001017 0.12152 0.38838 0.40944 -0.24638 -0.38452 0.29941 -0.3745 -0.70633 -0.29212 -0.50603 -0.28277 1.217 -0.85816 -0.12332 -0.47663 -0.87673 -0.70825 0.05566 0.64509 0.49746 -0.022618 -0.52747 0.053933 -0.52279 0.24306 -0.79111 -0.41735 -0.21866 -0.22836 -0.85852 -0.2112 -0.31268 -0.7025 0.40128 0.003248 0.43446 -0.26096 -0.1768 0.16877 0.81953 -1.2195 -0.24104 0.36187 0.34509 -0.12329 1.0052 0.064753 -0.19789 1.0565 -0.56402 -0.09134 -0.027747 0.21976 0.89306 -0.098476 0.14312 -0.93922 0.61459 0.009885 0.72687 -0.61961 -0.28286 0.47276 0.90788 -0.081511 -0.44261 -0.19929 0.63795 0.39402 0.3226 -0.15199 -0.989 0.033747 0.11081 0.41575 0.13297 0.53844 -0.76097 0.78342 -0.26576 0.33752 0.54274 0.12381 -0.33768 0.24767 0.50316 0.036674 -0.15977 -0.71684 -0.32479 -0.53266 -0.4562 0.1121 -0.68528 -0.53463 -1.214 0.86769 -0.68827 -0.89123 -0.49738 0.006652 0.22844 -0.30537 0.7536 0.30206 1.015 -0.055843 -0.031472 0.30394 -0.27868 -0.035123 0.67495 0.39621 0.005408 0.12146 0.70842 1.2347 -0.76482 0.70108 -0.599 -0.58261 -0.41251 0.92633 -1.1823 -0.21525 0.74386 -0.28069 0.19785 -0.66681 0.85269 -0.034023 -0.30315 -0.14146 -0.44648 0.43889 0.24558 -0.32568 0.12871 0.67533 -0.38366 -0.30897 0.36868 -0.12423 0.99779 -0.40861 0.40324 -0.52207 0.46908 0.72881 1.2381 -0.08004 0.20808 0.49871 0.62918 0.23445 -0.44628 0.24391 0.1613 -0.6013 0.94176 -0.079865 -0.023507 -0.47436 0.31657 0.86952 0.21388 0.29335 0.84509 0.099649 0.14451 0.003967 -0.30476 -0.41242 -0.81295 0.17149 -0.51129 -0.24534 0.71244 -0.32635 -0.047397 1.6564 0.039895 0.38521 -0.016511 -0.53679 -0.73825 -0.42581 -0.20737 -0.38503 0.83535 -0.31446 -0.88126 0.03729 -0.092382 -0.092755 0.17127 0.06886 -0.000254 0.005243 -0.52932 0.38998 -0.037999 -0.043773 -0.91994 -0.5813 0.00243 -0.24641 -0.41824 0.55371 0.067509 0.16969 -0.15306 0.81894 0.51823 -0.93185 -0.50785 -0.8119 -0.35018 0.21115 -0.66918 0.03995 0.49182 0.77884 0.13922 -1.2291 -0.71006 0.086725 -0.44235 0.22773 -0.37924 -0.19054 -0.22264 -0.27744 -0.73114 0.12498 -0.42638 0.75228 0.59798 0.16453 0.32048 -0.82034 -0.20956 0.208 1.1031 -1.0245 -0.74543 -0.27663 0.96866 -0.27933 -0.60138 0.3834 -0.5306 0.51182
í 0.496756 -0.460825 0.137578 0.035897 -0.041302 -0.015915 0.118663 0.081766 -0.187122 -1.492447 0.356731 -0.10141 -0.118706 0.130058 0.243781 -0.038837 0.155988 -1.170718 0.413547 -0.035787 0.16416 0.055625 0.183123 0.070826 -0.047729 -0.101696 0.170608 0.015182 -0.040108 -0.095735 0.320481 -0.264462 0.03616 -0.072857 -0.426027 0.204836 -0.004844 -0.068532 0.212657 -0.065008 -0.152606 -0.031119 -0.050977 0.112949 -0.014258 -0.234597 0.063636 -0.168035 0.034121 0.025607 0.050193 0.096737 0.324383 0.009315 0.12032 -0.050292 0.146842 0.093099 0.10934 0.226975 0.066197 0.039154 0.070483 -0.418636 -0.062555 0.11123 0.258028 -0.315318 -0.113653 -0.16805 -0.103091 -0.089612 -0.40487 0.0426 -0.016959 -0.116699 0.033891 0.071974 0.033847 -0.084864 0.050576 -0.105559 0.03668 0.059136 -0.094601 0.41149 0.456866 -0.140964 -0.43544 -0.164276 0.315031 0.014625 0.144152 0.030194 -0.194365 0.425059 0.001767 -0.085859 0.083617 0.069998 -0.202073 0.025892 0.067751 0.096898 0.070321 -0.549191 -0.103861 -0.290781 -0.111022 -0.18476 -0.076949 0.291798 -0.324535 -0.041662 0.02028 -0.104027 -0.084209 -0.182588 0.061078 -0.096048 -0.037883 -0.192374 0.076849 0.225997 -0.125109 0.039738 0.109166 0.10461 0.302878 0.074677 -0.345282 0.138402 0.101407 0.225775 -0.031218 0.097229 -0.188201 0.121733 -0.130099 0.169438 0.803846 -0.008679 -0.411049 -0.028243 0.017176 0.099486 0.348263 -0.079437 0.020885 0.156023 0.112117 -0.265698 0.174701 -0.067419 0.060246 0.220378 0.011004 -0.460495 0.17256 0.02453 0.081747 0.101295 -0.034999 0.348656 0.332656 0.401927 -0.449081 0.362263 -0.3255 0.004333 0.017321 0.103737 0.026121 0.235445 0.263665 0.001205 0.072776 -0.148242 -0.382399 -0.062398 0.048696 -0.009162 0.209409 0.114646 0.332981 -0.036315 0.285009 -0.085772 0.156809 0.097448 0.418212 0.030032 -0.014667 -0.269338 0.059453 -0.385375 0.133403 0.048262 0.18138 -0.033244 -0.136351 0.43037 0.227449 -0.067634 -0.425197 -0.197702 0.062038 0.118792 0.123846 0.092789 0.162844 0.073215 -0.089086 0.541899 -0.092943 -0.084359 0.189715 0.105322 0.547168 0.004593 0.003537 -0.09009 0.343606 -0.117466 -0.016214 -0.014448 0.010757 -0.145688 -0.082891 -0.299785 -0.075979 -0.098171 -0.223512 -0.176813 -0.086045 0.180608 0.066709 0.096906 0.02742 -0.171465 -0.019813 0.105855 -0.18041 -0.254818 -0.187862 0.220379 0.237609 0.059663 0.28609 -0.006308 -0.062695 -0.071042 0.00273 0.042944 -0.122984 -0.491721 -0.195017 0.19778 0.135242 -0.193956 -0.229481 -0.242587 -0.053843 -0.162571 -0.049816 0.236941 0.004737 -0.303177 -0.748921 0.17638 -0.133799 -0.156068 0.069196 0.402658 0.091907 -0.013226 0.026411 -0.242785 0.100057 -0.073954 -0.322085 -0.146581 -0.080804 -0.168516 -0.063016 0.135853 -0.119617 0.091716 -0.254524 0.089213 0.424953 -0.040175 -0.156041 0.05994 0.355683 0.113867 0.315201 0.123302 0.023698 -0.235934
≔ -0.1863 -0.27375 0.52741 0.058857 0.16211 0.25381 -0.65117 -0.79043 -0.83023 -2.4587 0.62415 -0.25241 -0.42873 0.20116 0.98475 0.11292 0.33036 -0.75226 0.44795 0.052089 0.24579 0.14417 -0.67957 1.0043 -0.19395 -0.96065 0.98706 -0.18903 0.10342 -0.15966 -0.2785 -0.74887 -0.34176 0.18459 -0.71654 0.59002 0.84048 -1.1107 -0.39298 -0.16814 0.028965 -1.0074 -0.25264 0.73155 -0.075887 0.084518 -0.71247 -0.31373 -0.47458 0.23578 -0.53138 0.41877 -0.00435 -0.3844 0.1393 -0.24866 0.39951 0.3606 0.47524 0.47049 0.66738 -0.78278 0.46394 -0.62113 -0.45471 -0.15427 0.046316 -0.25109 0.39506 0.1937 -0.049902 0.39369 -1.3136 -0.38553 -0.30877 -0.61839 -0.26731 0.58636 -0.372 -0.48319 0.14154 -0.064926 -0.68758 -0.25786 0.035605 1.1171 0.31469 -0.17562 -0.6018 -0.54467 0.051291 -0.61167 0.41737 -0.22888 -0.077589 0.45377 -0.075702 0.5334 -0.089287 -0.11944 1.112 -0.57192 -0.47071 0.053822 -0.09431 -0.13479 0.698 0.45454 -0.61882 -0.39525 -0.33423 0.27193 0.1712 0.38508 0.035691 0.63378 -0.21142 -0.65853 -0.015161 -0.46656 -0.65129 -0.054794 0.046359 -0.47907 0.21339 -0.011148 0.14762 -0.003191 0.55706 0.18054 0.077401 0.30246 0.10565 0.77891 -0.28837 -0.16112 -0.067695 0.5377 -0.013749 0.31877 0.8115 0.38422 -0.93263 0.76474 -0.38594 -1.0871 0.43308 -0.27311 -1.1268 -0.33736 -0.091922 -0.46517 -0.25886 -0.14746 -0.61556 -0.28695 0.19993 0.11978 0.88287 0.10676 -0.40473 0.24602 0.13538 0.13826 0.69221 0.25733 -0.9234 -0.46516 -0.77006 0.48692 -0.20126 -0.58328 0.002195 0.97253 0.42238 0.17491 -0.062763 -0.23987 -0.89203 0.24858 -0.024779 -0.20939 0.60187 0.58012 -0.39403 -0.35242 -0.62342 0.36834 0.56904 0.31179 0.77342 -0.29641 -0.17164 -0.36605 0.57555 -1.2175 0.53589 -0.36143 -0.040155 -0.23645 0.23095 0.34591 0.68397 0.001532 -0.52643 0.24324 -0.85181 0.80513 0.41909 0.16367 0.6482 1.0928 -0.34565 0.17236 -0.072412 0.05159 0.12768 -0.27783 -0.000717 -0.79978 0.77154 -0.74293 0.30286 -1.0367 -0.75484 0.18043 -0.59665 -0.18711 -0.25295 -0.81995 -0.29347 -0.1274 -0.2332 -0.70982 -1.0204 0.002136 -0.18792 0.15207 -0.85779 0.76472 -0.46691 -0.11032 0.5714 0.080556 0.22409 0.39046 1.2179 -0.92062 0.28589 -0.45674 0.49788 0.14686 1.0554 0.012674 -0.16611 -0.27352 0.71177 -0.93586 -0.52004 -0.78851 -0.28472 -0.10184 -0.57262 -0.81391 0.48698 0.54375 0.004776 -0.27334 -0.23005 -0.008212 0.10186 1.147 -0.39016 0.52075 0.64669 -0.008151 0.18954 -0.75619 0.12947 -0.61456 0.075224 0.22927 -0.77246 -0.29327 0.52379 -0.72494 -0.41525 0.006127 0.7581 -0.53673 0.50901 -0.008319 0.36171 0.15584 0.35622 -0.016636 0.31012 -0.10047 -0.14019 -0.33202
ọ 0.523282 -0.279278 0.05948 0.113654 0.010784 -0.023328 0.01398 0.053195 0.727674 -1.865675 0.596677 0.180792 -0.057289 0.247161 0.629565 0.26399 0.379522 -1.046269 0.177332 0.33472 -0.283526 -0.091977 0.005964 -0.241258 0.186827 -0.439972 0.462058 -0.0117 0.058744 -0.354876 -0.272129 -0.087258 -0.009788 -0.031665 -0.414214 0.086796 -0.18211 0.196404 0.037577 0.197386 -0.294023 -0.395193 -0.174098 -0.130123 -0.138378 0.391374 -0.236855 -0.139468 0.270459 -0.008987 0.00738 -0.008243 0.361246 -0.09277 0.127611 0.199775 0.206619 -0.232063 -0.031285 0.182577 -0.35346 -0.153564 0.080905 -0.692075 -0.417113 0.035477 0.007302 -0.441768 0.240855 0.166086 -0.523353 0.351187 0.027528 -0.154571 -0.109403 0.038111 0.014949 0.144669 0.132618 0.072905 -0.089028 -0.013217 -0.086815 0.171407 -0.272655 0.663491 0.399154 -0.033199 -0.26545 0.313031 0.08526 -0.293796 0.201396 -0.054668 -0.41995 0.678815 -0.122053 0.05162 0.206097 0.02375 -0.16409 -0.122604 0.334742 0.228966 -0.126059 -0.428736 -0.452839 -0.548344 0.324598 -0.120504 0.108539 0.257512 -0.122045 0.001471 0.21976 -0.023833 -0.157188 -0.45562 -0.19764 -0.315322 -0.453632 0.00455 0.183044 -0.085483 0.144472 0.193879 -0.124625 0.234969 0.310389 0.463737 -0.335101 0.022348 -0.081403 0.097302 0.010852 0.035136 0.023331 0.282304 -0.221423 -0.479623 0.777299 -0.143916 -0.850368 -0.211674 0.047769 0.302165 0.046046 -0.031245 -0.22226 0.112281 0.39237 0.104392 -0.154427 0.16655 0.379467 -0.06532 0.020102 -0.332357 0.017579 0.210884 0.104172 -0.359546 -0.195601 0.453075 0.028771 0.47855 -0.208873 0.141757 -0.480878 0.060683 0.255793 0.365071 -0.138381 0.265399 0.80333 -0.204741 0.117851 -0.339215 -0.099359 0.204487 0.035391 0.134241 0.506085 -0.058506 -0.137924 0.467607 0.343819 -0.070363 0.037844 -0.197926 0.467514 0.123374 -0.251128 0.037381 0.270746 -0.460641 -0.146217 -0.161024 0.15508 -0.311724 -0.053078 -0.103361 -0.194155 -0.227147 -0.495829 -0.593709 0.140029 0.010846 0.150704 -0.272034 0.209472 -0.118181 0.103196 0.523956 -0.089862 -0.13291 0.470458 0.129061 0.024576 -0.034349 -0.116762 0.167039 0.375329 -0.068357 -0.288172 -0.14345 -0.433967 -0.255692 -0.011264 -0.108285 0.181953 -0.204583 -0.380071 -0.233852 -0.243256 0.390001 0.348365 0.191761 0.195836 -0.191898 0.093542 0.045746 0.125211 -0.458194 -0.30674 0.308799 0.122522 -0.019413 0.09021 -0.460415 -0.137804 0.230376 -0.206985 0.314824 -0.029882 -0.398876 -0.45356 0.514218 0.194245 -0.418563 -0.29449 -0.59047 0.29064 0.043428 -0.064021 0.127617 -0.26885 -0.408414 -0.916608 0.532081 -0.293201 0.379613 0.183285 0.772146 0.034185 0.341505 -0.188379 -0.16821 0.166671 -0.437423 -0.471722 -0.471627 0.002176 -0.321566 0.424893 -0.426915 -0.432934 -0.073292 -0.148551 -0.014977 0.735977 0.284295 0.019303 -0.273055 0.657558 -0.03486 0.149044 0.242268 -0.340061 0.220388
ｓ -0.12874 -0.53074 0.013541 0.27299 -0.34938 0.40979 0.59963 0.085 -0.2464 -1.8208 0.36009 -1.3121 -0.54341 0.10907 0.34754 -0.24869 0.091818 -1.0282 0.78515 0.83341 0.30835 -0.33556 -0.4399 -0.09303 0.28373 -0.001086 0.38395 -0.30372 -0.23708 -0.2327 0.74309 -0.92206 -0.47664 0.57387 -1.0649 0.18144 0.38458 -0.40995 -0.11259 0.15216 -0.13492 -0.72853 -0.61248 -0.4345 -0.009948 -0.082572 0.21214 -0.20836 0.21958 -0.51536 -0.21565 0.25551 -0.090009 0.17684 0.28965 -0.48922 0.67356 0.14391 0.006222 -0.024713 -0.16892 -0.00706 0.33431 -0.14388 -0.50799 0.20827 0.11539 -0.60845 -0.51025 -0.040864 0.11535 -0.006059 -0.74499 0.058297 -0.020404 -0.26563 0.27863 0.083041 0.050883 -0.22508 0.075559 -0.12873 -0.041991 0.061217 -0.75321 0.20825 -0.10272 -0.023531 -0.82139 -0.087846 -0.23493 -0.10028 -0.14953 0.45238 -0.41694 0.367 -0.084437 -0.48035 0.38406 0.7359 0.47014 0.33417 0.56181 -0.26856 -0.62829 -0.68838 0.6163 -0.24309 -0.035804 0.43601 0.047414 0.8963 -0.54732 0.36595 -0.19098 0.31307 -0.38141 0.17682 0.11974 -0.40226 0.031774 -0.34843 -0.42525 0.079078 0.69791 0.093112 0.21226 0.28894 0.52778 0.59997 -0.8346 0.22095 0.37862 0.38432 -0.30626 0.11484 0.18769 0.24121 0.076495 0.65014 0.2782 -0.66607 -0.64719 0.14308 0.65389 0.47013 0.4497 0.47193 0.1972 -0.085137 -0.16784 -0.33662 -0.263 -0.37603 -0.14975 0.64937 -0.18127 0.13749 0.48693 0.82184 0.52011 -0.12252 0.59126 -0.22301 0.49017 0.36793 0.43456 -0.886 0.056674 0.12764 0.14064 0.051109 -0.077378 0.39279 0.11555 0.056394 0.36277 0.087868 -0.55111 -0.31525 -1.2564 0.48949 0.57657 0.73203 0.46824 0.17765 -0.055193 -0.26824 0.43406 0.68734 -0.053847 -0.12619 0.38745 -0.82037 -0.32527 -0.33302 0.51162 -0.05744 0.54809 0.11861 -0.30511 0.48224 0.27327 -0.021138 -1.0093 -0.11195 -0.014851 -0.15708 0.57281 -0.61779 0.11594 0.02265 0.13564 0.44626 0.1403 -0.014343 0.019753 -0.65608 0.3405 0.51445 -0.077669 -0.099334 0.73479 -0.81003 -1.0719 -0.58661 -0.45054 -0.076754 0.47068 -0.93634 -0.021415 -0.17281 -0.80537 0.065164 -0.1731 -0.29258 0.87428 -0.74705 -0.48688 -0.32128 -0.073812 0.30956 0.36662 0.098336 -0.23341 0.34643 0.40057 -0.30824 -0.07417 -0.23765 0.03718 -0.17764 0.23326 0.28444 -0.72371 0.15674 -0.5989 -0.074181 -0.079452 -0.48223 -0.30753 -0.26535 0.19453 -0.3892 -0.54892 0.76754 -0.57936 -0.054732 0.14974 -0.32503 -0.12319 0.30613 -0.53853 0.41239 0.58535 -0.91787 -0.097997 -0.46731 0.4496 0.24858 -0.36544 -0.50696 -0.58456 -0.23709 0.009791 0.10649 -1.1461 -0.021393 -0.061679 0.50858 0.60895 0.38292 0.77031 -0.3602 0.75111 0.065463 0.13463 0.40843 -0.13239 0.076883
↺ 0.47777 0.067693 -0.25493 -0.5776 0.12886 -0.16777 0.56676 -0.65822 1.1064 -0.78587 1.195 -1.2531 -0.3369 0.66706 0.18493 0.022406 -0.17051 0.19046 0.33082 0.42759 0.65553 -0.013563 -0.20604 -0.45084 -1.121 -0.11816 -0.3265 -0.49108 1.1321 -0.11332 0.82522 0.090631 -0.034053 -0.19657 -1.0689 0.72884 -0.86407 -0.37562 -0.57299 1.0136 -0.61265 -0.4706 -0.78251 -0.078176 -0.065401 -0.23604 0.73483 0.51605 0.077297 -0.72282 0.20635 0.19271 -0.13557 -0.56412 0.58469 -0.12284 -0.11679 0.19203 1.2818 0.23739 -0.90508 0.32992 0.43984 -0.40801 0.039931 -0.29143 -0.66964 0.15704 -0.34074 -0.98847 0.12104 -0.56118 -1.0966 -0.23887 0.39934 -0.17484 -0.20982 0.31071 -0.83558 0.76064 -0.55936 0.71386 -0.58517 0.64183 0.23381 -0.43903 1.3211 -0.30072 -0.82512 0.37723 1.0008 -0.28015 -0.61103 0.00901 -0.18831 0.84187 -0.47344 0.3391 -0.80905 0.35204 -0.92708 0.19569 -0.90132 0.57648 -0.55119 -1.8306 0.041546 -0.34838 0.17665 -0.58299 0.56312 -0.39884 0.39236 0.43678 -0.71791 1.2174 0.45477 0.29637 -0.24675 -0.73148 -0.46199 -0.22589 0.8399 0.043127 -0.24365 -0.25146 -0.21738 0.15817 -0.3946 -0.04115 -0.61293 0.11609 0.36116 -0.021037 0.18568 0.79583 0.060512 -0.71597 -0.1472 0.34512 -0.11121 -0.021911 -0.36593 -0.7403 -0.10912 0.17497 -0.22651 0.95834 0.25102 -0.4194 -0.20715 0.33582 0.15243 0.39323 0.36164 -0.67007 -0.12907 -0.9035 -0.38099 0.37001 -0.12598 0.095121 0.14338 0.21334 -0.5841 0.69001 -1.0471 -0.20153 0.81845 0.54337 -0.5981 -0.6827 1.2758 0.069109 0.0563 0.13875 0.43468 0.21102 -0.16416 -0.65686 -1.0605 -0.073261 0.52541 0.19866 -0.18407 0.94018 0.67939 -0.65328 -0.033571 -0.70689 0.64138 0.69986 -0.40744 -1.4298 0.018139 -0.48787 0.15558 -0.2532 0.87154 0.27638 0.32909 0.78395 0.21112 0.78524 -0.75335 -0.665 -0.23262 0.28049 0.13993 0.15934 -0.28855 -0.84557 0.075987 -0.12803 -0.36088 -0.27766 0.18251 -0.52198 0.41278 -0.35109 0.07296 -0.55306 0.59672 -0.93387 0.28079 -0.4522 0.36365 0.58701 -0.11382 0.12189 -0.28092 0.31329 -0.56414 0.88776 -0.1448 -0.32089 -0.000726 -0.44243 -0.0227 0.46811 -0.44123 0.32454 -0.15164 -0.51696 0.33831 -0.26613 0.4991 0.43859 0.30899 -0.10553 -0.30454 -0.27525 0.41353 -0.18598 0.26137 -1.0565 -0.82796 -0.060911 0.19521 -0.028647 -0.52614 0.3912 -0.031722 -0.019557 -0.21596 0.39663 -0.028555 -0.44194 -0.20083 1.4525 0.004843 -0.23784 0.58827 -0.14449 0.011232 0.095879 0.07157 0.34473 0.19915 0.13132 0.12959 -0.60575 -0.18696 -0.57091 -0.45008 0.23658 0.36115 -0.13964 -0.043011 0.56928 0.72894 0.59475 -0.29806 -0.62893 0.14086 -0.24012 0.61122 -0.15431 -0.50728 0.38625
ǡ 0.77236 0.091147 0.21353 0.34004 0.010732 0.41688 -0.25632 -0.69615 0.43125 -2.0284 0.55604 0.31299 -0.25367 0.80294 0.50386 0.46567 -0.43415 -0.86003 0.50531 -0.062822 -0.32176 0.088695 -0.52214 -0.40248 -0.36915 -0.67509 -0.16754 -0.086565 -0.002112 0.28571 0.83878 -0.95122 -0.53655 0.48831 0.057201 0.25512 0.23798 0.61646 -0.67958 0.42948 -0.2998 -1.9674 0.52776 0.099151 -0.17135 0.19705 -0.3234 0.36746 -0.54985 -0.16076 -0.26763 0.75651 0.45887 -0.37699 0.18125 0.088039 -0.16594 0.36314 0.49538 0.52698 -0.31191 0.2578 1.1536 -0.36283 -0.84179 0.21425 0.43226 0.17576 -0.15692 0.42744 0.024865 -0.72268 -0.06641 -0.046863 -0.13525 -0.1102 0.043168 -0.029124 0.27571 -0.083309 -0.22175 -0.21625 -0.22013 0.3374 0.026676 0.012762 0.90422 -0.79638 -0.78722 0.11502 0.46678 0.035675 0.4121 0.83852 -0.29172 0.84393 -0.31016 0.12259 -0.033341 0.25124 -0.28178 -0.19019 0.15144 -0.55118 0.20241 -0.28841 -0.29482 -0.50687 -0.086876 0.57426 0.15592 0.45483 0.020492 -0.27354 -0.95914 -0.41075 0.14588 0.2884 -0.34142 0.15232 0.2304 0.21778 -0.3474 0.2512 0.26 -0.11871 0.27782 -0.30076 0.36488 0.07794 0.062765 -0.84975 -0.041337 0.1426 -0.19185 0.73997 -0.53795 0.57446 -0.53987 0.60088 0.71847 0.033079 -0.4442 0.78706 0.49684 -0.21953 0.004227 0.41237 0.099763 -0.029735 -0.38165 -0.66198 -0.3096 -0.31394 0.57381 -0.42384 0.53666 -0.49592 0.96438 -0.029223 0.42085 -0.60732 -0.38418 -0.26883 -0.21647 0.45461 -0.23039 -0.013169 -0.67408 0.55342 0.73129 0.77952 -0.13134 0.11321 0.19704 -0.54888 0.11293 -0.092571 -0.57742 -0.51294 -0.57788 0.29079 0.088871 -0.44447 -0.27242 0.10343 0.36865 -0.058991 0.33646 -0.5202 0.035273 -0.47818 0.62045 -0.10427 -0.019791 -0.56209 -0.073732 0.19354 0.61293 -0.79341 0.73416 0.10443 -0.17207 -0.009324 0.084581 -0.67873 0.41357 -0.086988 0.61321 -0.63641 0.092167 0.24624 0.60505 0.2363 0.35501 -0.11805 0.40194 0.55207 0.083828 0.22435 0.26846 0.48049 -0.55386 -0.42032 0.43674 -0.48793 -0.009692 -0.39149 -0.25156 -0.64847 0.29633 -1.0074 -0.63266 -0.68252 0.066378 -0.35264 -0.61232 0.3261 -0.076285 -0.1532 -0.3639 -0.60531 -0.013713 -0.42729 0.018158 -0.26266 0.1695 -0.15022 0.20361 0.29633 -0.23835 0.62716 -0.50648 0.006945 -0.62436 -0.18727 -0.00581 0.38834 -0.54195 -0.35615 -0.32113 0.13566 0.48285 -0.10169 -0.94485 -0.010232 -0.28776 -0.63069 -0.30796 0.062501 -0.31646 0.50469 -0.03034 0.26547 -0.00707 0.38601 0.13683 -0.16829 -0.030684 -0.2932 -0.90602 -0.50811 -0.18554 -0.57887 -0.024859 -0.073043 -0.39498 0.060857 -0.11683 0.24694 0.12264 0.057783 -0.093067 -0.40173 -0.27939 -0.17403 -0.31492 0.32004 -0.29186 -0.48862
߂ 0.43319 -1.2035 -0.097684 -0.003482 -0.37659 0.50627 -0.20022 0.96052 -0.15575 -2.3478 0.81509 -0.71444 0.11208 -0.15639 0.6751 0.044305 -0.18387 -0.84833 -0.44229 0.53614 0.18893 0.39414 0.30278 0.23774 -0.32328 -0.044433 -0.2396 -0.37133 -0.12279 0.57735 0.17451 0.035824 0.43359 0.12792 -0.3789 0.14425 0.87885 0.37094 -0.62347 0.30756 -0.68374 -0.3033 0.18798 0.29612 0.11982 0.49108 -0.7051 -0.5634 -0.047809 0.1332 -1.2403 1.2146 0.70183 0.68279 -0.6458 0.29721 0.48175 -0.095689 -0.11642 0.22652 1.0232 -0.68073 0.41818 -0.54718 -0.18672 0.13864 -0.62485 0.25256 -0.15139 0.29838 -0.18933 0.46937 -0.41756 0.072163 0.5394 0.16373 -0.21504 -0.20187 -0.41942 -0.79978 -0.014004 0.0366 0.1416 -0.088779 -0.57124 0.47252 1.0039 -0.73774 -0.56223 0.47595 -0.4999 0.004973 -0.36419 -0.65793 -0.60589 0.19436 -0.37344 0.16792 -0.51379 -0.090422 0.84626 0.32197 0.23542 -0.99743 -0.81984 -0.52266 0.47624 -0.28496 -0.1782 -0.70141 0.72492 0.33355 0.17524 0.64811 -0.62492 0.93367 0.046564 -1.0645 0.11333 -0.36476 -0.17015 0.17843 -0.074654 0.19636 -0.063823 0.23544 -0.35026 0.57952 -0.16143 -0.41071 -0.24752 -0.26908 0.13601 0.1312 -0.14302 0.11557 -0.20423 -0.21067 0.14011 -0.53398 0.45425 0.099926 -0.59179 -0.43514 -0.3671 -0.99987 -0.084325 0.11518 -1.0318 -0.26083 0.42231 -0.059859 -0.68859 0.42774 0.014696 -0.31289 0.29892 -0.50153 1.3616 -0.030058 -0.70801 0.11045 -0.62502 0.41529 0.46314 0.2088 -0.2985 -0.62811 0.000838 -0.14777 -0.091771 0.26151 -0.46133 0.1968 0.93948 -0.4101 0.074298 0.076546 -0.88499 -0.25296 0.10871 0.8555 1.2013 0.82255 0.79155 0.45289 1.1726 -0.27747 0.44721 -0.47633 0.59561 0.14296 -0.25557 -0.5104 0.16988 -0.63568 -0.07512 -1.228 0.21007 -0.14015 0.92161 0.83537 -0.039969 0.57532 -0.16199 -0.18505 -0.14974 -0.22703 0.51601 -0.59812 0.68285 0.49504 -0.53432 -0.053168 -0.071322 -0.23334 0.21664 -0.058086 1.1523 -0.48184 0.19172 -0.039739 -0.53979 -0.4234 -0.70027 1.077 -0.18219 -0.52258 0.019903 -0.018194 0.77327 -0.28022 -0.69924 0.090967 -0.35737 -0.14001 0.007159 -0.56143 -0.55143 -0.22088 0.77792 0.52469 0.20056 -0.080368 -0.85935 0.86505 1.2485 -0.77243 0.021058 0.11539 0.73439 -0.85201 -0.27693 -0.24423 0.78496 -0.3435 0.58281 -0.78125 -0.52464 -0.27619 -0.19133 -0.5581 0.098835 -0.42659 0.59419 -0.16746 0.45876 0.77925 -0.056856 0.11221 0.10977 0.099226 -0.49636 1.0167 0.19166 -0.4098 0.29585 -0.094067 -0.31953 0.33469 -0.30832 -0.624 0.81575 0.40632 -0.22805 -0.18745 0.128 1.2796 0.17366 0.231 0.57142 -0.060609 -1.36 0.75644 0.35327 -0.55515 0.052288 -0.75094 -0.075445 0.25074
Գ 0.32339 -0.36596 0.10021 0.61554 0.001151 0.091652 0.43403 -0.16236 -0.17774 -0.4677 -0.35883 -0.3966 -0.44745 0.10264 1.1069 0.466 -0.041249 -0.88394 -0.071903 -0.30015 0.4868 -0.44929 -0.284 0.35402 -0.49942 0.32643 -0.094919 0.23382 -0.84697 -0.3816 -0.42738 -0.00068 -0.68695 0.057016 -0.26632 0.10871 0.45502 0.87402 -0.46673 0.14973 0.031657 0.051927 -0.19144 0.036271 0.62142 0.16843 -0.27855 -0.10762 -0.1081 -0.047043 -0.20571 -0.03242 -0.13474 -0.10891 -0.15637 0.16922 -0.10682 0.17514 0.033332 -0.909 0.10213 -0.62564 -0.12807 -0.011747 0.13642 0.29131 -0.34827 0.36248 0.044647 -0.25721 -0.46278 -0.17051 -0.18791 0.10944 -0.16867 -0.11645 -0.15356 0.22504 0.1098 -0.17089 -0.27837 -0.20053 -0.053353 -0.064614 -0.47116 0.63451 0.15271 0.13174 -0.194 -0.50234 -0.38203 0.16109 0.12251 0.28014 -0.823 0.21358 0.44773 -0.6778 0.43038 0.61375 -0.4853 0.40743 0.14654 -0.37635 0.30602 0.07352 -0.3493 0.14088 -0.22448 -0.11365 -0.096583 -0.04066 -0.19479 0.24754 0.27819 0.17539 -0.28417 0.65194 0.3602 0.35959 -0.070402 0.32483 -0.49957 -0.58126 0.34266 -0.85532 -0.26946 0.18459 -0.18723 0.097629 -0.59917 0.11323 -0.30943 0.13569 -0.16256 0.30131 -0.056388 -0.029105 -0.38027 -0.04465 -0.34925 0.18824 -0.12097 -0.004882 -0.22372 -0.27597 0.016238 0.13698 -0.29147 0.51693 0.19824 0.12682 -0.12748 0.34227 0.17207 -0.028152 -0.28376 0.43777 0.16058 -0.11833 0.1396 -0.25784 0.18697 0.33221 0.92298 -0.19021 0.1727 0.52283 -0.098526 -0.39639 0.035868 -0.35116 0.031663 -0.18448 0.43758 -0.21065 -0.26626 0.43906 0.16367 0.54797 -0.37262 -0.084968 0.23895 0.3042 -0.086966 1.0194 -0.6828 -0.26892 -0.47443 0.012342 -0.2857 -0.3298 0.026844 0.10155 0.21965 -0.16195 -0.3064 0.32554 0.12029 0.6582 -0.22052 -0.13544 0.47977 -0.1916 -0.048665 -0.56888 -0.025413 0.002386 0.41304 0.052435 0.24478 -0.08815 -0.33316 0.2875 0.74535 -0.15273 -0.012113 0.42719 -0.38099 0.42666 -0.24405 -0.4167 -0.26451 -0.34322 -0.29095 -0.452 -0.086085 0.18138 0.52914 -0.006173 0.13697 0.14011 -0.55737 0.10255 -0.049862 -0.042131 0.35831 0.10409 -0.15064 0.001445 0.054911 -0.20678 -0.16783 -0.54907 0.23188 -0.11105 -0.088922 -0.29349 0.093304 0.005408 0.41731 0.18918 -0.58666 -0.37795 0.2177 0.003274 0.2091 0.4867 -0.42371 0.29568 0.048515 -0.070802 -0.047322 -0.098332 0.37827 0.48533 -0.32095 0.094763 0.34337 0.43633 0.43149 -0.45372 -0.44864 -0.84511 0.193 -0.3554 -0.015222 -0.10076 0.1709 0.076275 -0.33228 0.69849 0.24469 0.64004 -0.10749 -0.31814 0.025547 0.14525 -0.8799 -0.2843 0.10571 0.14022 0.20318 -0.53429 0.19889 -0.45941 0.25099 -0.087786 0.58988 -0.12308
◃ 0.70195 -1.8631 -0.40846 0.019626 0.028496 -0.12733 0.29971 0.33009 0.31375 -1.5021 0.25895 -0.76553 -0.38578 1.3337 0.15126 0.80689 0.86112 -1.3674 1.0352 -0.032704 0.20116 0.10983 -0.46163 -0.43065 -0.23748 0.34485 -0.18648 0.42699 -0.71989 -0.58103 -0.035884 -0.37883 0.9821 0.3758 -0.46998 0.076376 0.18538 -0.11251 -0.37683 0.27773 -0.63467 -0.62096 0.92584 1.0898 0.43262 0.23276 0.16175 0.37566 -0.23055 -0.26622 -0.10511 0.057717 -0.38645 -0.5814 -0.006121 0.27561 0.89592 0.99731 0.62516 -1.1849 0.53754 0.6026 0.3271 -0.18138 -1.2367 0.15232 0.030157 -0.15354 0.69563 0.84313 0.089464 0.57639 -0.21166 -0.15403 -0.43136 -0.72043 -0.23199 -0.099289 0.40605 -0.31598 -0.13643 -0.61504 -1.0893 0.2996 0.017763 0.49733 0.37726 0.3395 -0.34799 0.20365 0.20095 0.12405 0.63884 -0.77166 0.40354 0.53626 0.8741 -0.43572 -0.99812 -0.6277 0.33378 -0.43538 0.4067 0.067293 0.9886 0.13079 0.3411 -0.27102 -0.73403 0.33262 -0.82179 -0.5298 0.17797 0.51788 -0.12902 0.87298 -0.22328 0.77064 -0.67372 0.20043 -0.22185 -0.099227 0.12784 0.61793 0.62625 -0.1434 0.41512 -0.038121 -0.9878 -1.1198 -0.13125 0.26341 0.5623 0.45185 -0.91528 -0.45301 0.77944 0.43061 -0.34541 -0.20644 1.1679 -0.3368 -1.3636 0.19822 -0.014546 -0.090717 -0.40323 -0.26496 -0.02716 0.61117 0.32254 0.002847 0.083458 0.70598 0.99028 -0.096421 -0.29625 -0.15352 0.73879 0.68758 0.74835 -0.55733 -0.36755 0.21359 0.3671 1.0808 -0.87825 -0.028304 -0.16734 -0.014591 -0.38507 -0.088219 -0.45019 0.91933 -0.053904 0.44367 -1.0257 -0.27858 -0.16958 0.24199 0.31539 0.3466 0.64469 0.80645 0.16955 -0.75214 -1.5678 0.38362 -0.59593 0.046515 0.038831 -0.39483 0.12297 -0.69293 -0.10047 -0.004581 -0.19355 0.45933 -0.050204 -0.37043 0.3029 0.13244 -0.52419 0.49054 -1.0406 0.002102 -0.36951 0.31614 0.53804 -0.76812 0.25077 0.12756 0.64083 1.2964 0.26908 0.5816 0.61847 -0.089579 0.37441 0.49404 0.65686 -0.32752 -0.17815 -0.12342 -0.34122 -0.54346 0.51075 -0.22745 0.11544 -0.041847 0.53058 -0.78236 -0.57518 0.42214 -0.42054 -0.52317 0.10919 0.43537 0.14101 -0.4889 -0.90821 0.44474 -0.73189 0.46414 -0.2067 0.2272 1.0608 0.44378 0.52652 -0.79482 -0.27784 0.036306 -0.4464 0.86308 0.52606 -1.2893 -0.2223 0.52129 0.3645 -0.42505 -0.15811 -0.21574 -0.27142 -0.93753 -0.56194 0.64996 0.038056 -0.008422 -0.38075 0.044599 -0.31263 -0.59229 0.10578 0.99995 -0.17145 -0.16176 0.040934 -0.41567 -0.78042 -0.59484 -0.2736 -1.7662 -0.17812 0.61934 0.62047 -0.34324 -0.4311 0.64174 -1.0692 -0.093652 0.45182 -0.58358 0.012702 -0.25467 0.1996 0.23166 0.41078 0.09139 0.47404 -0.96986
☭ 0.1279 -0.033019 0.1648 0.10245 0.053707 0.2972 -0.20449 -0.27532 -0.32339 -1.7316 0.95258 -0.48922 -0.48686 0.85594 -0.64395 -0.13721 0.0982 -0.97924 -1.0799 0.65389 0.5185 0.82775 0.075773 -0.013687 -0.90301 0.02819 0.35127 0.18264 0.7168 0.23806 1.0221 -0.087157 0.57065 0.2658 -0.70603 1.0563 0.73953 0.38724 -0.057122 0.60901 -0.23705 0.17863 0.17573 0.3737 1.2433 0.19645 0.064294 -0.021998 -0.14864 -0.017106 0.2069 -0.013233 -0.63356 -0.37234 0.36015 -0.42592 0.025209 -0.67149 -0.018549 -0.36379 -0.19295 0.41836 -0.9515 -0.58834 -0.31618 1.1371 0.81979 0.38114 -0.72785 -0.3174 -0.54785 -0.19599 -0.20954 0.24376 0.85668 -0.77081 0.012851 -0.35362 -0.040893 0.52768 0.012988 -0.088408 -0.31426 1.0669 0.063162 -0.080855 0.85288 -1.2681 -0.84007 -0.66497 0.44866 0.5324 0.31976 -0.24322 0.14217 0.29247 -0.35874 -0.087983 -0.84865 0.12615 0.15755 0.86933 0.40691 -0.7664 -0.4079 0.1241 -0.22517 0.30015 -0.60812 -0.006205 0.38002 -0.24274 0.31835 0.40807 -0.035322 0.53158 -0.51082 -0.15148 0.33216 -0.37401 0.34152 0.28519 -0.12512 -0.28351 -0.41202 0.2071 -0.54329 0.26002 0.69745 0.49241 0.95752 -0.21893 1.299 0.16776 -0.80852 0.041251 0.44268 -0.51136 0.003105 0.80114 0.11633 -0.34851 -0.91098 0.38759 -0.094669 -0.42584 0.26818 0.19743 0.18744 0.30487 -0.41297 0.075711 -0.21427 0.093107 0.092797 -0.15095 0.039534 0.42172 -0.083562 0.60814 0.29524 -0.023796 0.11351 0.1191 0.71354 1.5223 -0.1093 -0.68837 -0.19843 0.0267 -0.39799 0.65882 -0.5071 0.041604 -0.17424 -0.637 0.8268 -0.74653 0.18218 0.042814 0.49579 0.14673 -0.89597 0.91724 -0.26288 1.1227 -0.081882 -1.1089 -0.57645 -0.50092 -0.28437 -0.21167 0.061689 -0.18732 -0.32077 -0.15882 0.82209 0.2804 -0.48734 -0.22218 -0.052567 1.3656 -0.21019 -0.41701 -0.24108 0.37725 0.80185 0.12664 0.36212 -0.68461 0.00456 0.83017 -0.1693 0.24304 -0.75512 0.31724 0.80261 -0.12746 -0.45239 -0.2682 -0.46441 -0.27877 0.22001 -0.76719 0.061728 0.20727 0.081398 0.40689 0.016325 -0.21394 -0.66345 0.16303 -0.20762 -0.16955 0.54258 0.28448 -0.49656 0.17955 0.77941 -0.088938 0.18255 0.32689 0.29859 -0.59593 -0.15639 -0.1489 0.16246 0.41068 -0.27834 -0.14176 -0.2908 -0.027399 -0.48563 -0.13314 0.56918 -0.66939 -0.92822 -0.43208 0.38827 0.77946 -0.09675 0.046759 -0.9762 0.11284 0.402 0.88479 -0.51118 -0.053949 -0.15849 0.3753 -0.23489 0.14512 -0.3555 0.014589 -0.52502 0.009181 0.55207 0.68483 -0.21127 -0.24867 0.16799 -0.39292 0.058076 -0.20556 -0.025432 -0.85864 -0.31729 0.24165 -0.35337 0.86277 0.46272 0.27003 0.42415 0.40988 0.76759 -0.2 1.3395 0.45652 -0.27274 -0.24101
∠ 0.30422 -0.72066 -0.17489 -0.33137 0.1642 0.039752 -0.26622 0.81906 -0.004084 -2.1918 0.68484 -0.39953 -0.99798 0.097825 0.025219 -0.65566 -0.56556 -0.27057 0.57037 -0.19841 -0.32878 0.66304 -0.90962 -0.31163 -0.11974 -0.62579 0.5507 0.18405 -0.49868 -0.57008 0.55656 -0.39268 0.61567 0.72514 0.14322 0.45121 -0.8987 -0.18245 0.2146 -0.63101 -0.29903 -0.35399 -0.88458 -0.74659 -0.004696 -0.18838 -0.23025 -0.34145 -0.48245 0.067486 -0.23205 0.31942 0.68873 0.10752 0.19281 -0.22541 0.24985 0.049055 0.10132 0.49021 0.035066 -1.0449 0.13066 -0.31636 -0.8769 0.65322 0.14174 -0.83209 0.59632 -1.1231 0.12003 -0.089088 0.32385 0.76386 -0.21865 0.097479 -0.37478 0.012223 -0.52185 -0.44894 -0.087865 0.21724 0.28969 0.49284 -0.081313 -0.071918 1.0363 -1.3163 0.33654 -0.11423 0.42144 0.70367 0.36681 -0.11664 -0.38876 0.64129 0.13846 -0.91576 -1.2978 -0.16663 0.33097 -0.057434 0.26575 -0.091151 0.01614 -0.54762 0.55036 -0.76504 -0.079966 -0.092253 -0.15947 0.51047 0.53478 0.22886 0.028947 -0.26485 -0.23932 -0.079476 0.19175 0.53988 -0.011914 -0.42443 0.3967 -0.31345 -0.057712 0.39002 0.095251 -0.20317 -0.12755 -0.37823 -0.043357 -0.019901 1.2426 0.38658 -0.10482 -0.2042 0.070889 -0.58198 -0.31896 -0.80957 0.94429 -0.29669 -0.14522 -0.050722 -0.64971 -0.050733 0.2427 -0.11815 0.64395 -0.10378 -0.14407 -0.4884 0.14106 0.70956 -0.21606 -0.53223 0.010011 -0.001594 0.38776 0.35046 -0.59495 -0.3574 -0.14871 0.57553 0.97827 1.1905 -0.67771 0.000577 -0.53173 0.24476 0.46259 -0.085774 0.2228 0.14571 0.19201 -0.18867 -0.32141 -0.032871 -0.15112 -0.48944 0.09144 -0.050001 0.29561 -0.38048 -0.37773 0.21159 -0.36837 -0.27602 0.48977 -0.033574 0.41018 0.22929 -0.17815 0.19072 0.28895 -0.54067 0.68051 -0.35023 -0.16524 0.098697 0.41943 0.59941 0.77093 0.47751 -0.4656 -0.25964 0.45797 -0.51851 0.48254 -0.41413 0.76975 0.39858 0.10663 -0.75043 -0.16602 0.21248 -1.0942 -0.031451 0.32087 0.84414 0.13608 0.10669 0.78851 -0.060198 0.38935 0.56503 -1.0436 -0.24535 -0.11082 -0.86314 0.036242 0.25249 0.61999 -0.52588 0.85432 -0.7302 -0.31651 0.35892 0.080363 0.19933 0.32053 -0.47493 0.2319 0.16934 -1.0523 0.57269 1.004 -0.86087 -0.35322 -0.47205 0.17796 0.021276 0.37549 -0.18751 -0.64073 -0.40493 0.60779 -0.038988 1.3884 0.1926 -0.21771 -0.78425 -0.11809 0.18206 -0.003924 -0.50381 0.63161 0.17734 0.3859 0.43259 -0.15944 0.34268 0.16781 0.14315 -0.6252 0.15183 -0.027019 -0.78895 -0.58125 0.71668 -0.63897 -0.34856 -0.60412 0.60647 -0.15888 0.056824 -0.060273 0.13376 -0.36168 0.67748 1.2071 -0.30018 -0.89103 -0.15658 0.12556 -0.4233 -0.53937 -0.94282 0.32004 -0.37084
ģ -0.1621 0.12348 -0.049028 0.3928 -0.2308 0.42877 0.2617 0.19402 0.26031 -2.1988 0.38105 0.19293 -0.050045 0.20562 0.55758 0.41934 0.17583 -1.0809 -0.20695 -0.44176 -0.11259 0.34508 0.048915 -0.35795 0.63412 -0.58134 0.6386 -0.82429 0.27906 -0.33402 -0.14531 -0.63562 0.18495 -0.018831 0.15038 0.32555 -0.27807 0.16485 0.091637 0.25851 -0.21303 -1.0104 -0.39884 -0.15683 -0.22919 -0.63643 0.039839 -0.59669 -0.32025 0.086366 0.15271 0.65246 -0.46877 -0.076534 -0.37156 0.14273 -0.2135 -0.17275 -0.36278 0.35012 -0.53241 0.090789 0.56285 -1.0316 -0.30367 -0.24548 -0.072381 0.12871 0.51462 -0.047467 -0.074589 0.015139 -0.22521 0.24164 -0.21782 -0.29835 -0.17134 0.16472 -0.081509 -0.45114 -0.35263 0.10859 -0.050611 0.19973 0.15193 0.33126 0.92894 0.14425 -0.26975 -0.42506 0.34593 -0.071892 0.047377 0.11829 -0.18589 0.48441 -0.76006 0.56904 -0.68445 0.50742 0.22402 0.14662 0.39211 -0.09923 -0.005771 -0.44482 -0.077335 -0.58937 0.10271 -0.4293 0.32236 0.53974 -0.10503 -0.42946 -0.25247 0.52755 0.055519 0.72031 0.25147 -0.056394 -0.44404 -0.22578 0.069493 0.74231 0.15718 0.64028 -0.51342 -0.10358 0.051829 0.06196 0.17016 -0.42163 0.065507 -0.061199 -0.41325 0.24818 0.043333 -0.51596 -0.56037 -0.72161 0.91374 -0.23058 -0.53568 -1.1052 -0.097559 -0.004145 0.094897 0.019924 0.10002 0.32215 0.27647 -0.059263 -0.44174 0.15652 0.63097 0.2967 -0.25978 0.044961 1.0624 -0.22688 -0.27861 -0.52669 -0.30665 0.058921 0.33289 -0.03295 -0.31546 -0.21836 -0.34344 0.15873 0.4988 0.57997 0.17136 0.30397 0.24852 -0.071016 -0.12552 0.23244 -0.25511 -0.40735 0.1482 0.44514 -0.092458 0.16286 -0.10688 0.28056 0.27816 -0.44642 0.38028 -0.28997 0.91797 -0.076057 -0.18789 -0.83172 0.059874 -0.9005 0.10785 0.54794 0.50908 0.31634 -0.29008 0.16979 0.80256 0.013571 -0.507 -0.32612 0.29258 0.59806 0.29605 0.21786 0.64882 -0.43242 -0.16786 0.71025 0.31946 -0.081573 0.02738 -0.046998 0.7942 0.13567 0.21644 0.062681 0.50625 -0.005647 0.39251 -0.30936 -0.14208 -0.19917 -0.42987 -0.078416 -0.24946 -0.4062 -0.39702 -0.41384 -0.10715 -0.001763 0.39123 0.25386 -0.3111 -0.18031 -0.23005 -0.018029 0.14478 0.33475 0.11799 0.30195 0.59332 0.47527 0.08822 -0.39307 0.24791 0.23278 0.17943 0.25433 0.23073 -0.37093 0.29187 -0.007494 0.22571 0.42668 -0.6188 -1.1436 0.24105 -0.21458 0.098729 0.38173 -0.069565 0.17225 -0.83842 0.016294 -0.73808 -0.49854 -0.19404 0.4436 -0.54045 0.082309 0.70917 0.80286 -0.003994 -0.4618 -0.73098 -0.48376 0.37893 0.012989 -0.054608 0.056426 -0.27277 0.36146 -0.54201 0.11697 0.52936 -0.48768 -0.086118 0.59204 -0.059036 0.026145 0.40854 0.03224 -0.10026 -0.25878
∂ -0.088699 0.50905 -0.56152 0.84253 0.35975 0.59881 0.058186 0.009447 -0.2497 -1.8626 0.41578 -0.32181 -0.04909 -0.52372 -0.1892 0.18607 -0.42701 0.57347 -0.31541 0.48399 -0.069855 0.58762 -0.09653 -0.043561 -0.58873 -0.61441 -0.46375 0.40283 0.3814 1.0016 -0.0081 -0.47329 0.33418 0.10779 0.14008 0.7177 0.45565 -0.25613 -0.18887 -0.48995 -0.41761 -0.46637 -0.12608 0.053404 -0.37849 -0.029558 -0.51463 0.041452 0.377 0.11443 0.18614 -0.14159 0.08013 1.0827 -0.15568 0.26603 0.15635 -0.35263 0.43478 0.31018 0.002776 0.10414 -0.027999 -0.37988 -0.74506 0.036325 -0.059049 1.0355 0.28028 -0.465 -0.384 0.4751 -0.31114 -0.3631 0.27381 -0.034436 -0.13063 -0.048757 -0.0242 -0.25646 -0.34603 0.83931 0.21583 0.52165 -0.41098 -0.35545 1.0278 -1.272 0.051982 -0.061429 -0.57398 0.002316 0.22114 -0.011358 -0.64521 0.91162 -0.089892 -0.20958 -0.56269 -0.002644 0.19201 0.32892 -0.12286 -0.61144 0.55362 -0.41185 0.237 -0.17371 -0.93558 -0.17514 -0.12453 -0.37531 0.18661 0.46723 -0.1876 0.49529 -0.17576 -0.27617 -0.26982 -0.43666 -0.26013 0.060318 0.34174 0.007599 -0.055124 0.18351 0.47484 -0.36105 -0.34732 0.14376 -0.15055 -0.10513 0.7064 -0.050563 -0.20324 -0.054242 0.22618 -0.59806 0.21054 -1.2667 0.67127 -0.22277 -0.28957 -0.038151 0.52436 -0.47972 0.30919 0.18945 -0.032345 -0.11269 0.022157 -0.14121 -0.28452 0.14889 0.10682 -0.30865 -0.71067 -0.058201 0.91259 0.27925 -0.018625 0.3538 -0.14908 0.34304 0.46361 0.17727 -0.54087 -0.31815 -0.21988 -0.34488 -0.36176 -0.006162 -0.44042 0.5449 0.49547 -0.65926 0.46633 -0.56831 -0.35625 -0.43045 0.13655 -0.20458 0.42118 0.11936 -0.16482 0.62515 -0.74125 -0.37428 0.7588 -0.2143 -0.077172 -0.22166 -0.26309 -0.029298 0.84978 -0.32402 0.40698 -0.030946 -0.47115 0.18725 -0.21745 0.51745 0.33874 0.47823 -0.39313 -0.47323 0.24263 0.40888 0.30492 -0.18887 0.50425 0.15805 0.19966 0.09306 -0.3407 0.50697 0.38892 0.11501 0.30045 0.48849 0.010358 0.42496 0.18599 0.10776 -0.53878 0.18504 0.21621 -0.52944 0.36643 0.16697 -0.62794 -0.41988 -0.31278 -0.024461 0.11206 -0.33051 -0.029132 0.14849 -0.95151 0.16149 0.08223 -0.068153 0.48616 -0.1814 -0.53177 0.27287 -0.079253 -0.483 0.28625 -0.61119 0.55875 -0.2598 0.71159 -0.46142 -0.49707 -0.093712 -0.29213 -0.39868 0.3537 -0.97116 -0.69171 0.04939 -0.084665 -0.35886 0.009216 0.56771 0.39509 -0.21052 -0.16664 -0.14488 -0.24384 0.34952 -0.29109 0.20081 -0.72494 -0.71115 -0.14302 -0.003798 -0.025869 -0.29558 -0.93005 0.8778 -0.60507 -0.15089 0.50419 -0.47305 0.17437 0.12942 0.14326 0.64095 0.7364 -0.22597 0.01735 -0.40747 0.75417 -0.48999 0.3815 0.15257 0.9753 0.022249
ũ 0.253437 -0.756355 0.094015 0.023363 -0.129276 -0.020271 0.268524 0.092414 -0.076668 -1.422833 0.714027 -0.152689 -0.027868 0.038718 0.488993 -0.050815 0.298709 -0.848163 0.141516 0.13468 -0.443535 -0.088409 0.277132 -0.082429 0.408397 -0.274592 0.371154 -0.304176 -0.16098 -0.229128 0.015988 -0.177752 0.055796 0.016716 -0.445818 0.268315 -0.047831 0.037323 -0.171615 0.423432 -0.119483 -0.468555 -0.328477 0.03962 -0.050648 0.118872 0.30531 -0.27494 0.229688 -0.118944 0.23097 -0.037507 -0.297642 -0.065657 0.069852 -0.084451 0.133779 -0.173048 0.17359 0.248308 -0.34225 -0.079119 0.012677 -0.42132 -0.260668 -0.005511 -0.050883 -0.185834 -0.239803 -0.224685 -0.46249 0.179263 -0.676755 -0.311383 -0.040376 -0.136586 -0.297724 0.417239 -0.048884 -0.1508 0.32454 0.073447 0.43338 0.619662 -0.2687 0.449652 0.758615 -0.313008 -0.365287 -0.060108 0.097342 -0.371472 0.046844 0.193324 -0.407837 0.743718 0.070753 -0.144107 -0.20666 0.086253 0.003765 -0.075815 -0.018842 -0.127337 -0.168133 -0.479952 -0.019096 -0.596538 -0.210669 -0.326917 -0.281297 0.470927 -0.01561 0.054489 -0.407066 -0.183694 -0.113512 -0.323018 -0.014898 -0.239132 -0.570285 0.003342 0.123752 0.065541 0.138622 0.526386 0.126808 0.060508 0.135674 0.375187 -0.475104 0.104224 0.042868 0.146655 -0.226205 -0.358427 0.266696 0.19654 -0.116005 -0.125199 0.644363 -0.183496 -0.520525 -0.612307 0.310978 0.032891 0.515543 0.174497 -0.254378 0.268476 0.080218 0.414305 0.124847 -0.11866 0.175162 0.051733 0.09683 -0.124287 0.343203 0.000157 0.132516 -0.032228 -0.262485 0.298085 0.380208 0.73856 -0.532232 0.169073 -0.38306 0.097956 -0.067286 0.424142 -0.174178 -0.062515 0.406537 -0.2147 0.132271 -0.300585 -0.200017 0.344133 -0.024683 0.22827 0.093487 0.176349 0.154858 0.400428 0.259697 -0.226178 -0.178731 -0.119096 0.598403 0.06122 -0.02324 0.020493 -0.127693 -0.489897 0.219776 -0.06083 0.313662 -0.153751 -0.237434 -0.209571 0.101758 -0.274064 -0.681228 -0.320377 0.340996 0.17278 -0.04582 0.057707 0.455297 0.233112 -0.258247 0.416682 -0.362923 0.021533 0.678817 0.040128 0.375891 -0.104006 -0.19501 0.155895 0.318848 -0.217561 -0.248857 0.101263 -0.091552 -0.070493 0.029494 -0.113338 0.143537 0.08935 -0.319707 -0.309358 -0.07011 -0.392283 0.191825 0.006455 -0.178465 0.079691 -0.44657 -0.004758 0.290544 -0.047099 -0.229475 -0.065205 0.46336 -0.16369 0.12514 -0.446628 -0.056038 0.019152 0.098119 0.226446 -0.063403 -0.327213 -0.400212 0.391899 0.154173 -0.109698 -0.498425 -0.44227 -0.024139 -0.109222 -0.165469 0.592292 -0.111535 -0.09199 -0.735082 0.318208 0.138465 0.087653 0.133705 0.493181 0.08156 0.15037 -0.187948 0.056462 0.10255 -0.257482 -0.351008 -0.192115 -0.029283 -0.131764 0.201591 -0.268482 -0.170728 0.147801 -0.446389 0.069088 0.571703 0.007417 -0.38088 0.164132 0.092712 -0.226242 0.043671 -0.166157 0.039182 -0.15513
➪ 0.45321 -0.77991 0.49326 -0.84662 -1.2413 0.002963 0.82292 0.18009 0.1574 -1.4805 -0.32448 0.086753 -0.13332 0.68628 0.42096 -0.11289 -0.4334 -1.4803 -0.72503 0.011704 -0.79634 -0.14007 0.43 0.50445 -0.85876 -0.74965 -0.52364 -0.10592 -0.31635 0.011294 0.2608 0.32727 0.45113 0.95024 -0.67915 -0.11647 -0.38423 -0.46386 -0.46481 1.2236 -0.32998 -0.20086 0.079041 -0.22248 0.28624 -0.71434 -1.2762 -0.20262 0.45671 -0.034763 -0.13215 0.015603 0.12738 -0.28467 0.97629 -0.25583 0.45007 -0.18492 0.24677 -0.37133 -0.50691 -0.1499 0.04062 -0.7678 -0.47347 0.14133 0.15978 -0.063652 0.43338 -0.46826 -0.23426 -0.028578 0.28081 -0.31735 0.36949 -1.0132 0.30081 -0.033051 0.40999 0.21008 -0.091181 -0.72254 -0.70279 -0.19087 -0.36512 0.19342 0.002425 -0.22454 -0.84244 -0.12907 -0.05343 -0.1881 0.57903 -0.076065 -0.20156 0.93904 -0.82761 0.12023 -0.15876 0.36754 0.48808 0.04262 -0.22353 0.1923 -0.25896 -0.15951 0.6087 -0.63465 -0.045809 0.3045 -0.046103 -0.44488 0.3138 0.18645 0.14719 0.071709 0.46305 -0.10866 -0.22202 0.48256 -0.78924 0.53689 -0.034743 0.28448 -0.092731 -0.30713 0.39844 -0.30969 -0.38437 0.16118 -0.46937 -0.38449 -0.21965 -0.57526 -0.21201 0.37533 0.1937 -0.31268 0.072432 -0.12966 0.87433 -0.06453 -0.85059 0.46038 -0.21367 0.80242 0.2656 0.14435 -0.46247 -0.59677 -0.79969 0.39809 -0.53976 -0.004377 0.55147 0.49586 -0.017827 -0.66339 0.50028 0.02803 0.27714 -0.20377 -0.24797 0.72307 0.20975 0.41817 -0.46159 0.16047 -0.11344 0.3297 0.020347 0.59186 0.44305 -0.20894 0.7946 -0.3724 0.083936 0.035 0.46145 -0.70029 0.19835 -0.96711 0.33422 -0.27751 0.57083 -0.17157 -0.37231 0.56945 0.20117 0.41103 -0.10472 -0.40421 0.56784 -0.088881 0.033469 0.59071 0.27974 0.44104 -0.28238 -0.5312 -0.94495 0.23984 -0.30577 0.37439 -0.096822 -0.23739 0.54274 -0.51804 -0.6395 -0.22259 -0.46401 0.38654 0.34536 0.77174 0.054423 -0.18536 0.35597 -0.56134 0.5972 -0.74425 0.39188 -0.40015 0.45712 0.60942 0.036761 0.32682 -0.13162 -0.30336 -0.34164 -0.61108 -0.35129 0.18124 -0.21275 -0.16798 -0.66666 0.28114 -0.32007 0.80106 -0.44699 0.54801 -0.19334 0.13349 -0.18942 -0.84584 -0.020384 0.188 0.16161 0.96505 -0.079953 0.10762 0.64712 -0.004004 -0.32569 0.49773 -0.49366 0.058715 0.1298 0.081888 0.056011 0.6062 0.60473 -0.66653 0.41909 -1.3275 -0.25958 -0.29023 0.12374 -0.037105 -0.758 0.68607 -0.17582 0.033153 0.22759 -0.28936 -0.45549 0.15604 0.13748 0.35225 -0.23105 -0.50352 -0.040885 0.17364 -0.56787 0.28891 0.5644 0.059467 -0.56403 0.35973 -0.44805 -0.57381 0.52248 0.009097 -0.009958 -0.041549 -0.12375 -0.27678 0.2735 0.596 0.27448 -0.5877
｢ -0.2639 -0.29182 -0.31859 0.1428 -0.72678 0.10223 0.29734 0.59343 -0.44322 -2.269 0.33161 -0.33983 -0.25557 0.50269 0.45414 -0.19991 0.10558 -0.51298 0.2257 0.63024 -0.46325 0.068809 -0.40305 0.17208 -0.10709 -0.47878 0.3085 -0.37669 -0.068458 -0.10588 0.10646 -0.29201 -0.21569 0.69756 -0.061928 0.092246 -0.32117 0.47562 0.46245 0.23705 0.44703 -0.035954 -0.11125 0.16038 -0.053788 0.14856 -0.17645 -0.15401 -0.19874 -0.23754 0.18996 -0.25477 -0.45069 0.056082 -0.49257 -0.28726 0.31728 -0.27742 0.12212 -0.002512 -0.3875 -0.52598 -0.73361 -0.79557 -0.68516 0.16913 -0.30587 -0.15916 0.14406 -0.11184 -0.73478 0.66028 -0.37255 0.3033 -0.13943 -0.32327 -0.74566 0.42263 -0.22777 -0.01938 -0.21212 0.24729 -0.34882 -0.16954 -0.16682 -0.13583 -0.058708 -0.67828 -0.28663 -0.21055 0.14418 0.14084 0.10872 0.27169 -0.13668 0.50573 0.49507 -0.38339 0.17147 -0.013356 0.042834 0.4607 0.28282 -0.35961 0.12219 0.12038 0.20068 -0.33394 -0.34658 0.043768 -0.3959 0.71187 -0.4112 0.54855 0.004492 0.33747 0.192 0.18879 -0.09462 0.18464 -0.29093 -0.22841 0.14527 0.18818 -0.02696 -0.28672 -0.36126 -0.27775 -0.15711 0.63302 0.37009 -0.28497 0.050791 0.35287 -0.26925 -0.33346 0.469 -0.63567 0.16723 -0.35087 0.080061 -0.5667 -0.78684 -0.15064 -0.21934 -0.3869 0.3646 0.22767 -0.17403 -0.22506 0.1776 0.34779 0.29911 0.51041 0.30969 -0.18437 -0.22878 -0.32709 0.25762 0.25101 -0.18157 0.4945 -0.14738 -0.56657 0.052696 0.88462 -0.70122 0.27764 0.10437 0.83371 -0.084337 -0.26251 -0.043678 -0.2705 0.61795 -0.25232 0.51408 0.73918 -0.29403 0.57698 -0.028984 0.17628 0.35846 -0.24072 0.37777 0.41302 0.30024 -0.21562 0.31829 -0.19073 0.44467 -0.18726 0.50095 -0.33451 0.86278 -0.50712 0.21652 -0.29019 -0.60469 0.15912 0.43256 0.58197 0.18095 -0.10801 -0.46551 -0.15973 0.63929 -0.096875 -0.05699 0.048165 0.21957 0.22995 -0.31053 0.13127 -0.15547 0.18172 0.13884 -0.70296 0.44427 0.21505 -0.37954 -0.36282 0.035459 0.009288 -0.22805 -0.020657 -0.28838 0.12046 -0.47542 -0.43763 -0.19102 -0.31737 0.27704 -0.038237 -0.57874 -0.18378 0.23365 -0.3682 -0.40783 0.54556 0.021411 -0.31023 -0.20717 -0.20687 -0.52804 0.66634 -0.075268 0.39511 -0.15741 -0.469 0.27522 -0.72317 0.29931 -0.15525 -0.33952 -0.099369 0.14061 0.049781 0.40867 -0.22558 -0.063821 -0.61904 0.11014 -0.35062 -0.16282 -0.14165 -0.091512 -0.33049 -0.59297 0.58736 -0.32598 0.1609 -0.21042 0.22526 0.67102 -0.23146 -0.23736 0.16177 -0.31204 0.060989 -0.28085 -0.41321 -0.59772 -0.43681 0.002142 0.55694 -0.49643 0.146 -0.34603 -0.012947 0.49148 -0.11446 -0.10367 -0.21781 0.70972 -0.21359 0.087834 -0.074632 0.091544 -0.23352
▻ 0.72145 0.75391 0.55483 0.24614 -0.68377 -0.19829 0.5872 0.06337 0.29593 -1.6174 -0.44407 0.42663 -0.068202 0.45876 0.45922 0.6387 1.0905 -1.0562 -0.56516 0.71144 -0.1366 0.019523 -0.48934 0.27773 -0.51124 -0.49595 0.20012 0.22172 0.25041 0.051004 0.91465 0.10444 0.46974 -0.40402 -0.61726 -0.13341 -0.32634 0.94012 -0.42558 -0.2284 -0.11595 0.091998 -0.37177 0.59777 0.087497 -0.42024 -0.20839 1.3302 -0.11995 1.1737 0.010752 0.4113 0.89222 0.14247 -0.58614 -0.33198 0.62723 0.92765 0.50542 -0.32824 -0.73153 0.70351 -0.075972 -0.48833 -0.43442 0.73679 0.011384 -0.35014 -0.3742 -0.091888 0.56812 -0.12161 -0.08335 0.18901 0.063693 -0.2149 0.004496 -0.31048 0.49897 0.037504 -0.020967 -0.18292 0.63249 0.38751 0.97162 0.58401 -0.34318 -0.19502 -0.089988 -0.11305 -0.17104 0.25489 0.62031 0.032463 -0.43234 0.76673 0.16797 -0.29028 0.32786 -0.088081 0.61492 0.52847 -0.031098 0.58898 0.017676 -0.26891 0.63733 -0.21112 -0.72314 -0.12985 0.36347 -0.29935 0.3674 0.54181 0.095124 -0.60973 0.001335 -0.45089 -0.59104 0.86335 -0.1221 -1.3294 -0.70398 -0.069114 -0.053048 0.016582 -0.60995 -0.63366 -0.026124 0.15222 -0.67965 -0.82379 -0.33368 0.14644 -0.83622 -0.030167 0.46141 -0.093137 -0.23464 0.28363 1.029 -0.21871 -0.75798 0.062008 -0.80844 -0.57923 0.43914 0.52381 -0.45241 0.33825 -0.52589 0.55825 0.35597 0.07303 0.36469 0.062761 0.10476 -0.2764 -0.2632 -0.13609 0.29645 -0.42949 -0.034751 0.52637 0.34709 0.31989 -0.12658 0.15126 -1.0606 -0.49834 -0.41699 0.37343 1.178 -0.25012 0.85633 0.020803 -0.097422 0.089042 0.8322 -0.45462 -0.2572 0.61268 0.053328 0.83626 0.52727 -0.047217 0.33619 0.51326 0.070017 -0.31655 -0.036805 -0.35464 0.97518 -1.5685 -0.37386 -0.89908 0.56192 0.25582 0.54794 -0.21096 0.15631 -0.2688 -0.20644 0.049107 0.025751 -0.76783 0.91607 0.31134 0.19229 -0.15777 0.7328 0.29908 0.62656 0.44166 -0.31359 -0.40701 0.46354 -0.62779 -0.21712 0.47123 -0.030354 -0.080969 -0.095919 0.5586 -0.62708 -0.16966 -0.79787 -0.19763 0.39943 0.050825 -0.51712 -0.37787 0.24531 0.05642 0.87811 -0.18854 -0.1444 -0.16924 0.090595 0.34347 -0.49258 0.077332 -0.39538 -0.61402 0.10218 0.496 -0.14247 0.58753 0.57064 0.306 -0.42894 0.14308 -0.55531 -0.31872 -0.094452 -0.66954 -0.14057 -0.11767 0.1582 -0.40195 -0.027846 -0.29085 -0.49868 -0.54434 -0.29633 0.15735 -0.98163 -0.43128 -0.64533 0.29288 -0.87433 -0.094154 -0.39524 -0.29907 -0.64167 -0.25392 0.32266 0.32789 -0.25658 -0.23312 -0.69382 0.12911 -0.74988 -0.34971 0.85558 -0.031147 -0.79536 -0.54726 -0.13396 -0.3001 0.67887 -0.54193 -0.22307 -0.81754 0.11653 -0.59117 0.1823 0.095388 0.42353 0.2137
ø 0.349509 -0.42752 0.025443 -0.076186 -0.216563 0.078125 0.363551 0.004003 0.115107 -1.423354 0.226087 -0.073776 -0.054502 0.307507 0.367023 0.176366 0.206228 -1.272196 0.492834 0.131123 0.166307 0.140654 0.132708 -0.067298 -0.258151 0.016558 0.053737 -0.138061 -0.132513 0.034431 0.025733 -0.233008 -0.152001 0.091793 -0.093703 0.051207 -0.082681 -0.070206 -0.015652 0.269188 -0.178616 -0.295849 -0.284098 0.128267 -0.118597 -0.105776 0.182557 -0.427131 -0.101738 -0.020781 0.15294 0.040853 0.081305 0.005358 0.059801 -0.252868 0.031602 -0.246125 -0.088492 0.209451 -0.058055 0.082993 0.325418 -0.421792 -0.240034 0.042775 0.026398 -0.025052 -0.008354 -0.419933 -0.20783 0.07832 -0.051904 -0.024343 -0.133804 0.028228 0.091898 0.18136 -0.09491 -0.402429 0.235629 -0.365146 0.311837 0.189557 0.141541 0.350027 0.45668 -0.091807 -0.370518 0.129108 0.080268 -0.196224 0.176892 0.372293 -0.086535 0.299622 -0.093911 0.057072 -0.031963 0.225339 -0.031918 -0.270393 -0.086798 -0.06898 -0.092239 -0.494275 0.020939 -0.384865 -0.172568 -0.25072 -0.12941 0.183105 -0.38101 0.037511 -0.249817 -0.135573 -0.243174 -0.012775 0.039305 0.084019 0.121004 0.025748 0.163442 0.036138 0.320493 -0.072106 0.076066 -0.104893 0.050094 0.021403 -0.300133 0.069267 -0.142998 0.087107 -0.240019 0.112595 -0.127945 0.014551 -0.162697 0.077734 0.758792 -0.073926 -0.336267 0.042949 -0.163426 0.166292 0.12533 0.06797 0.185086 0.064893 -0.201054 -0.168065 -0.003578 -0.236388 0.356483 0.302834 -0.057551 -0.300349 0.258473 0.014724 0.214921 -0.015036 0.182154 0.333391 0.211693 0.228695 -0.522479 0.265696 -0.666041 0.077018 -0.112147 -0.03608 0.00064 0.176615 0.130946 -0.013463 -0.045105 -0.176329 -0.414761 -0.082321 -0.014068 0.061921 0.048583 0.173458 0.156925 0.113826 0.350728 -0.07858 0.093596 -0.027912 0.197156 0.013878 0.404806 -0.237304 0.042701 0.007417 0.078161 -0.022882 0.328191 -0.327901 -0.109392 0.197061 0.178416 0.051186 -0.37934 -0.103505 -0.05667 0.305775 0.133485 -0.001938 0.216349 0.17851 -0.057665 0.356662 0.012346 -0.186149 0.103303 -0.065639 0.618145 0.085909 0.126952 -0.166529 0.301975 -0.555002 -0.354048 -0.121342 0.165748 -0.421456 -0.273288 -0.227842 0.22049 0.190376 -0.035797 -0.320941 0.105015 0.117887 -0.149609 0.046158 0.140119 -0.17115 -0.144674 0.150276 -0.286032 -0.172298 -0.072975 0.208933 0.149055 0.109467 0.404343 -0.103605 -0.092684 -0.114302 0.355339 -0.138771 0.0547 -0.548375 -0.160156 0.226651 -0.009833 -0.425768 -0.071417 -0.485565 0.328526 -0.060033 -0.280924 0.18448 0.025567 -0.243427 -0.868393 0.062612 -0.040266 -0.174286 0.253185 0.410848 0.066691 0.007492 0.248707 -0.005881 0.025199 -0.292039 -0.129134 -0.073413 -0.149203 -0.180814 0.117472 -0.005178 -0.073623 0.264492 -0.14943 0.172985 0.40415 0.076613 -0.033772 0.018659 0.254901 0.033263 0.344581 0.075573 -0.133745 -0.199963
ா 0.065587 -1.1124 0.22201 0.17371 -0.31023 0.018928 0.25775 -0.16397 -0.1122 -1.5217 1.032 -0.039833 -0.32139 0.74045 0.96013 0.077204 0.009446 -1.1868 0.95907 0.60792 0.14188 0.3421 0.053822 0.45554 -0.99742 -0.85789 -0.15803 0.058165 0.13712 -0.10903 0.49593 0.36908 0.14273 0.19605 -0.74189 0.85329 -0.10152 -0.33854 -0.73236 0.15981 0.9583 -0.50385 0.1818 -0.17112 0.12163 0.11955 0.83355 -0.41072 -0.57542 -0.072783 0.052019 -0.45587 -0.16718 -0.13329 0.2935 -0.11204 -0.041819 -0.68577 -0.76465 0.16627 0.40192 -0.001763 0.23845 -0.29019 -0.30552 1.4677 -0.067559 0.020552 -0.12824 0.013771 0.54436 -0.55462 0.55014 -0.098673 -0.63205 0.011369 -0.68635 -0.23571 0.015556 -1.1223 -0.68385 -0.07523 0.19702 0.86425 -0.50227 0.61857 0.30716 0.28186 -0.55639 -0.84087 -0.10468 -0.063649 1.0167 -0.096743 0.041594 -0.000325 0.19506 -0.005421 -0.32516 0.069521 -0.2869 0.67731 0.036737 -0.8152 -0.16654 -0.042333 0.23813 -0.049792 -0.31694 -0.65784 -0.36721 0.07986 0.45117 -0.53451 0.008496 0.25851 -0.65429 -0.63165 -0.1509 -0.041787 0.39333 -0.68144 0.20632 -0.33657 0.57265 0.14759 -1.0309 0.16045 0.020946 -0.090354 -0.15631 -0.53832 0.03223 -0.31587 -0.18768 0.57999 0.12335 0.060849 0.52228 -0.4237 0.69513 0.16909 0.38607 -0.84055 0.31686 -0.63999 0.52614 0.25405 0.54433 0.52969 -0.81144 0.69214 -0.26144 0.19717 -0.066324 0.35271 0.080253 -0.54692 0.68218 -0.32573 -0.38271 -0.39237 0.31662 0.50307 1.0045 0.72911 -0.29988 0.18031 -0.35428 -0.36567 -0.4874 -0.073005 -0.3351 0.31118 -0.089107 -0.07506 -0.42231 -0.094733 -0.36329 0.71784 0.4037 0.82822 -0.25609 -0.1828 0.26276 0.20906 -0.80496 -0.61061 -0.20293 -0.077428 0.27668 -0.90788 0.041703 -0.26512 0.22898 0.03591 0.29053 -0.21865 0.39531 -0.73107 -0.27216 0.4749 0.22878 -0.29795 -0.89301 -0.065924 -0.046676 -0.025302 0.41662 -0.2554 0.03085 0.29636 -0.18916 0.81237 -0.33851 0.023735 0.67609 -0.39996 0.33254 -0.23124 0.32628 -0.629 0.43404 -0.8585 -0.082851 0.4435 -0.54858 0.40211 -0.015632 -0.19675 0.5679 0.25065 -0.45587 -0.3249 -0.26743 1.0115 0.36199 -0.36517 -0.081338 -0.46789 -0.46068 0.2888 -0.40527 -0.20335 -0.167 1.1293 0.071204 -0.33838 0.70345 -0.18077 -0.55292 -0.37592 0.34919 -0.14521 -0.41518 -0.96895 -0.17412 0.76059 0.12684 0.086496 -1.0321 -0.95241 -0.2878 -1.1231 -0.4487 0.33055 0.5439 -0.095448 -0.12753 -1.317 -0.15335 -0.070506 -0.2916 -0.007009 -0.22482 -0.45703 -0.071491 0.27717 0.29627 0.16019 -0.67932 -0.32048 0.024355 0.81741 0.40526 0.66424 -0.76449 0.060433 -0.70297 0.83555 0.76323 0.12234 -0.70767 -0.60179 0.57154 -0.15394 -0.56243 0.45378 0.2485 -0.16482
✵ 0.51725 -0.56863 -0.30515 0.71421 0.59582 0.70394 -0.62982 0.58597 -0.27057 -1.8751 0.13258 0.36629 -0.018819 -0.35188 0.28295 0.46617 -0.32938 -1.0639 0.38106 0.49774 -0.27059 -0.13305 0.43111 -0.19316 0.1956 0.57629 0.86949 0.30445 0.51727 -0.11875 -0.11813 -0.77923 -0.74211 0.44221 -0.43892 0.75229 0.44641 0.055994 -0.12073 0.49923 0.17797 -0.81009 0.20303 0.51342 -0.77159 0.14679 0.021471 0.6612 -1.1588 0.20635 -0.34609 -0.21438 0.2017 -0.88376 -0.36193 1.2231 0.36559 0.30054 0.65602 -0.25247 0.047211 -0.56259 -0.099019 -0.54809 -0.68924 0.76504 0.20243 -0.58925 0.50012 -0.58012 0.2907 0.37163 1.1304 -0.046336 0.1162 -0.040973 -0.097217 -0.12724 0.28312 -0.70633 -0.15373 -0.11722 0.093735 1.0671 0.20865 0.35503 -0.055507 -0.55471 -0.62452 -0.78913 0.21247 0.013775 0.62126 -0.19993 0.20389 0.085206 -0.2678 0.43241 -0.46189 0.29028 -0.66655 0.099945 0.33223 -0.2372 -0.46034 -0.16414 0.017022 -0.67041 0.34738 -0.62078 -0.42368 0.4835 0.61068 -0.1003 0.31752 -0.32493 -0.33342 -0.58765 -0.001804 -0.2353 -0.044919 -0.34806 0.5885 0.50158 0.30563 -0.45301 0.046689 -0.39967 0.02053 0.36844 -0.022215 -0.56126 -0.051222 0.65359 -1.0344 -0.26785 -0.27453 -0.73431 0.017646 -0.33221 1.0287 0.28402 -0.76204 -0.48645 -0.18127 0.47119 1.1051 -0.70249 0.026685 0.57036 -0.31086 1.169 0.19323 0.39199 1.0043 0.30533 0.1022 -0.2295 0.76587 0.013181 -0.00135 -0.27481 0.57836 0.68636 0.22337 0.3734 -0.29066 0.17648 -0.42261 0.52812 -0.11135 -0.64291 -0.29267 0.24337 0.36583 -0.40554 0.20359 -0.22534 -0.49105 -0.019774 0.055646 0.075677 -1.0889 0.42391 0.40925 -0.17698 0.34144 -0.46849 -0.44658 -0.10202 -0.15991 -1.186 -0.27407 0.038315 0.30574 -0.21763 -0.022664 -0.29741 -0.24738 -0.34556 -0.46272 -0.034688 -0.27334 -0.001808 -0.89294 -0.20289 0.8651 0.33903 0.52527 -0.72795 0.80663 -0.72485 -0.49041 0.65164 -0.29137 0.80762 -0.063019 -0.1596 -0.16105 -0.085568 -0.17278 -0.56247 0.71249 -0.2639 0.086794 -0.080862 -0.072906 -0.39106 -0.30211 0.17574 0.51038 0.29641 -0.77803 -0.29279 -0.078927 0.2945 0.12343 -0.57701 0.24442 -0.32338 -0.24483 0.11148 1.0998 -0.21503 0.16659 0.86637 0.042661 0.20946 -0.36152 -0.65854 0.55223 -0.42123 -0.022235 -0.51979 -1.0798 -0.21651 -0.49927 -0.031633 0.47262 0.012082 0.20575 -0.59257 -0.36484 -0.24826 -0.44159 0.50776 0.5207 0.15983 -0.73572 0.17493 -0.85619 -0.081082 0.57098 0.75726 0.25824 -0.85832 -0.20265 0.049844 0.69329 -0.054722 -0.2163 -0.10674 -0.23287 0.20222 1.1162 -0.26929 0.68034 0.35345 -0.99303 0.44312 0.30502 -0.55255 0.28216 0.024724 0.14404 -1.0021 0.2366 -0.17502 -0.11681 -0.17578
集 0.012884 -1.2981 0.81521 -0.11713 0.18286 -0.1136 0.75882 0.60323 -0.13329 -2.1687 0.069902 0.011086 -0.78132 0.51932 0.74776 0.13701 0.55038 -1.2452 0.61305 0.40683 0.17927 -0.079809 0.80488 0.42185 0.38455 -0.54901 -0.48076 0.7757 -0.68507 -0.20118 -0.52348 -0.23475 -0.83764 -0.026156 -1.263 -0.22194 0.44997 -0.14128 -0.077296 0.44294 -0.14772 -0.92566 -0.48135 1.5228 0.19979 -0.47013 -0.10191 -1.1639 -0.038774 0.24884 0.007301 -0.81601 -0.175 -0.68372 0.15543 -0.18794 -0.66337 -0.3913 -0.1989 0.58292 -0.63205 -0.29149 0.27539 -0.40655 -0.097106 -0.044893 -0.10039 -0.63629 0.31493 -0.50407 0.10211 0.25283 -0.47499 -0.41695 -0.69031 -0.5684 0.37194 0.72469 -0.45308 -0.32711 -0.015336 -0.73498 0.043382 -0.4368 -0.59511 0.078543 0.047409 -0.21643 -0.62757 0.089776 1.264 0.005032 -0.16665 0.28052 -0.63404 -0.44977 -0.057792 -0.19521 0.47152 0.58611 0.3328 -0.24111 0.38743 0.26781 -0.79039 -0.92291 -0.9204 0.064629 -0.43029 0.008963 0.46805 0.012097 -0.97723 -0.37171 0.20818 -0.41313 0.19321 0.31428 -0.079058 0.12767 -0.032157 -0.4294 0.141 0.32318 1.1274 -0.062161 -0.35921 0.66304 -0.1369 0.18682 -0.007042 0.56186 0.20621 0.20195 -0.62639 -0.63325 0.3367 -0.48428 0.32219 -0.043584 1.2836 -1.2197 -0.31713 -0.28935 0.25881 -0.91586 -0.70959 -0.50663 -0.44642 0.43076 -0.057102 0.5328 -0.46636 -1.0585 0.18525 -0.022432 -0.094881 -0.44607 0.074312 1.029 0.18127 -0.064703 -0.24989 -0.17046 0.56069 1.2226 -0.088991 -0.67945 -0.099007 0.31565 0.4882 0.19428 -0.011523 0.20944 0.44957 -0.19658 0.2807 -0.193 -0.88634 -0.041198 -0.46654 -0.071625 1.0299 0.6779 -0.002965 -0.24981 -0.46433 0.64918 0.38231 0.051034 0.58295 0.1759 0.41952 -0.92526 -0.39107 0.20798 1.3469 -0.7862 0.90541 -1.2348 -0.20708 -0.30099 -0.001443 -0.11342 -0.69731 -0.91543 0.37882 0.3852 -0.15622 -0.91078 0.38418 0.46068 -0.1493 -0.25699 -0.50722 -0.37984 0.31737 -0.34163 0.37514 -0.13204 0.36715 -0.20134 0.02923 -1.066 -0.24092 0.36938 0.30613 -0.044835 -0.16669 -0.40829 0.42122 -0.090109 -0.52061 -0.51874 0.39517 -0.37918 -0.26347 0.71231 0.28466 -0.71544 0.063803 0.022763 -0.52282 0.066585 -0.91521 -0.31014 -0.18487 0.65396 0.54379 -1.1074 -0.17278 0.35581 0.55716 0.56308 -0.3146 -0.70464 0.53415 0.46107 0.18916 -0.40119 0.061965 -1.1649 -0.12952 0.005217 -0.005288 0.019517 0.35424 -0.11826 -0.42749 -0.024911 0.30308 -0.31743 0.2045 0.20232 0.47382 -0.042052 -0.046472 -0.6219 -0.62417 0.09532 -0.054825 -0.51589 -0.17776 0.053862 0.071184 0.86481 0.20896 0.65144 -0.21376 -0.59345 0.34142 0.48792 0.37245 -0.20738 0.12129 -0.1786 0.22074 0.31411 0.44175 -0.058591
t 0.237226 -0.297044 0.125812 0.01488 -0.138495 0.104738 0.061175 0.102862 -0.074638 -1.255903 0.397282 -0.08434 -0.064487 0.184043 0.263058 0.040039 0.18631 -1.138389 0.317414 0.049148 0.022475 0.047729 0.097079 -0.006544 -0.094513 -0.030023 0.127542 -0.020452 -0.128794 -0.009395 0.145327 -0.180996 0.075411 -0.010555 -0.224426 0.069529 -0.02622 -0.054516 0.057771 0.148758 -0.129725 -0.080137 -0.170471 0.012651 -0.041458 -0.049876 0.181688 -0.169361 -0.082348 0.0244 0.061289 -0.016176 0.058456 -0.010854 0.034659 -0.062261 0.007595 -0.020184 0.001708 0.100722 -0.009679 0.048775 -0.002101 -0.384473 -0.128501 0.169507 -0.012357 -0.11557 -0.024313 -0.220616 -0.033485 -0.022737 -0.176652 0.00208 -0.099439 -0.122157 -0.109097 0.099727 -0.030336 -0.125062 -0.052198 -0.072726 0.104003 0.089593 -0.01706 0.265651 0.458672 -0.013231 -0.311663 -0.155006 0.086689 -0.09336 0.053154 0.14779 -0.079116 0.384058 -0.044389 -0.053994 -0.04323 0.062938 -0.006655 -0.069334 0.107491 0.054438 -0.026247 -0.736188 -0.024687 -0.11812 -0.150729 -0.126432 -0.131119 0.258546 -0.154811 0.027234 -0.052693 0.076993 -0.036512 -0.019848 0.041205 -0.048383 -0.068415 -0.033144 0.035199 0.173494 0.006429 -0.036784 -0.074656 0.005062 0.105856 0.068156 -0.130967 -0.013348 0.016079 0.109391 -0.08404 -0.048129 -0.00588 -0.033662 -0.10006 0.043984 0.692709 -0.043029 -0.256376 -0.047086 0.016816 0.08905 0.152384 -0.038844 -0.027463 0.169355 0.021212 -0.071774 0.003706 -0.034547 0.082558 0.148005 0.163206 -0.14197 0.05048 0.05285 -0.043269 0.061111 0.020597 0.245547 0.343695 0.129673 -0.145549 0.152392 -0.188842 -0.072602 0.006522 0.073438 0.188888 0.145747 0.108946 -0.047315 -0.058803 -0.089892 -0.289479 -0.033105 -0.027726 0.001973 0.079453 0.130864 0.207685 -0.021368 0.166132 -0.128876 -0.023053 -0.004809 0.210706 0.010234 0.113185 -0.119367 0.047139 -0.104936 0.19263 0.128125 0.292961 -0.262822 -0.083336 0.157789 0.044713 -0.076342 -0.245659 -0.045607 -0.014092 0.089534 0.085739 0.039727 0.082055 0.201107 -0.009077 0.210984 -0.167504 -0.250522 0.134212 0.002949 0.496244 -0.040798 0.052783 -0.088103 0.206753 -0.165818 -0.105444 -0.133022 -0.118234 -0.188074 -0.142011 -0.281802 0.128535 -0.018401 -0.114239 -0.066284 0.01185 0.093427 0.025851 0.108783 0.131046 -0.135645 -0.036551 -0.010253 -0.116872 -0.084055 -0.063059 0.152945 0.08101 0.077427 0.313287 -0.036981 -0.057074 -0.048767 0.034925 0.084113 -0.085104 -0.492607 -0.029767 0.134589 -0.024712 -0.109531 -0.137456 -0.239813 -0.039963 -0.181732 -0.022249 0.320459 -0.006659 -0.02419 -0.409481 0.16088 -0.109738 -0.066033 0.142793 0.236015 0.050086 0.038575 0.010694 -0.0166 0.076022 -0.279733 -0.21642 -0.157623 -0.126561 -0.076338 0.086899 0.116929 -0.093673 0.139537 -0.19065 0.026282 0.343797 -0.105809 -0.027586 -0.009262 0.058219 0.011952 0.051612 0.168153 -0.074958 -0.123836
Ɩ 0.032674 -0.45723 -0.094361 0.325128 -0.383695 0.054544 -0.240414 0.067756 0.038948 -1.222088 0.896141 0.277303 -0.095625 0.542682 0.171951 0.002059 0.050751 -1.192485 0.115518 0.273452 -0.061845 -0.152721 -0.178655 -0.017594 0.172225 -0.402498 0.690639 -0.411657 -0.302538 -0.272532 -0.177882 -0.608841 -0.037392 -0.094363 0.045925 0.13224 0.177439 0.134131 0.414585 0.520843 -0.181589 -0.295697 -0.002672 -0.09126 -0.592241 0.248807 0.21251 -0.296093 -0.027615 -0.019031 -0.637668 -0.001992 0.312483 0.196029 0.14302 -0.254769 0.121072 0.044611 0.055929 0.270251 0.581334 -0.022481 -0.139362 -0.060524 -0.290865 0.489966 -0.049338 -0.132823 -0.406337 -0.19253 0.040617 -0.087579 0.17745 -0.208664 0.061077 0.048377 0.021335 0.141039 -0.257825 -0.579211 0.233626 0.220596 0.141447 0.275704 0.167847 0.543601 0.222441 0.026575 0.134949 0.017526 0.27518 -0.33004 -0.119803 0.396909 0.096687 0.468273 0.181315 -0.244722 0.050225 -0.098133 0.051473 0.351001 0.353879 0.029542 -0.102514 -1.179368 -0.078043 -0.03307 -0.495439 0.247758 -0.146873 0.329905 -0.202994 0.0124 0.225082 0.159343 -0.270358 -0.104553 -0.095374 -0.298815 0.024403 -0.267996 0.536079 -0.234202 -0.071102 -0.147508 0.207637 0.024531 0.234314 -0.012408 0.171293 0.13268 0.077146 0.120825 -0.212839 -0.015398 -0.189536 -0.153004 -0.068828 0.041323 0.662254 0.233616 -0.415049 -0.028 0.148402 -0.641058 0.175957 -0.164154 -0.452364 0.33907 -0.302596 -0.252322 -0.161224 0.006664 0.015286 -0.026838 0.233443 -0.19705 0.067283 -0.023102 0.109208 0.401064 -0.132475 0.125921 0.583755 0.097228 -0.368747 0.070913 -0.264101 0.0478 -0.376887 0.172994 0.187105 0.312258 -0.074277 -0.113515 -0.024313 -0.145053 -0.50436 0.232323 -0.021727 0.028275 0.116341 0.240983 0.41021 -0.097675 -0.061535 -0.300798 -0.181567 0.25862 0.369299 -0.509207 0.589164 -0.593911 0.08893 -0.459587 0.190022 -0.276753 0.075984 -0.243706 0.235324 -0.265837 0.252039 -0.054905 -0.54879 -0.016594 0.260581 -0.003091 -0.107499 0.111654 0.079404 0.317395 -0.159971 -0.173065 -0.127349 -0.081842 0.676399 -0.046904 0.364363 -0.125501 0.513281 -0.511997 0.20174 0.217125 -0.435484 -0.332272 -0.397156 -0.537408 -0.34702 -0.134209 -0.041783 -0.496215 -0.057021 -0.172931 -0.183163 -0.017738 0.142242 -0.182209 0.253758 0.048112 0.191079 -0.130195 0.081304 0.021953 -0.14353 0.230764 0.278777 0.203998 0.309477 0.389196 0.131835 -0.414911 -0.03473 0.04706 0.209239 -0.177506 0.208516 0.282947 -0.190442 -0.157673 0.117366 -0.14332 -0.241791 -0.159731 -0.027166 0.248438 -0.057403 -0.075929 -0.590703 0.37376 -0.401006 0.278607 -0.04329 0.285908 0.107452 0.213522 -0.393803 0.100854 0.522938 -0.154351 -0.722085 0.070575 -0.313511 0.135888 0.097779 -0.082316 0.024448 -0.251249 -0.057846 0.065261 0.169885 -0.395823 -0.124655 -0.256231 0.100782 -0.094021 -0.20285 0.02519 0.149746 -0.270434
